{"layers":[{"out_depth":1014,"out_sx":1,"out_sy":1,"layer_type":"input"},{"out_depth":50,"out_sx":1,"out_sy":1,"layer_type":"fc","num_inputs":1014,"l1_decay_mul":0,"l2_decay_mul":1,"filters":[{"sx":1,"sy":1,"depth":1014,"w":{"0":0.013007057914019647,"1":-0.08302829127559301,"2":0.01801377384736442,"3":-0.05916351494032096,"4":-0.066408242787934,"5":0.022316679213889162,"6":-0.00870653959986254,"7":-0.0370831968228448,"8":0.013015411056830035,"9":-0.04336418550511926,"10":-0.0026495122422949945,"11":0.024526515385943578,"12":0.01605583380744146,"13":-0.012729678123066095,"14":-0.01913487785303365,"15":-0.019305360505185734,"16":-0.019169249352357913,"17":-0.010901420381052362,"18":0.006550851158128172,"19":0.043954737143757264,"20":-0.027231061315517127,"21":0.020994718889387566,"22":-0.04747337288403472,"23":-0.020434694426245938,"24":0.009087122673828798,"25":-0.00984532801394132,"26":0.049073815008048735,"27":0.013868874513050649,"28":0.01658734691674339,"29":0.05712719894326525,"30":0.0025751243757938156,"31":0.0052163731501338505,"32":0.012325023182563323,"33":0.01880423376729241,"34":0.050069528182489935,"35":0.007010830405975336,"36":0.0176621380524225,"37":0.020750582967411925,"38":-0.07347780065175565,"39":0.0004935985219697403,"40":-0.06534684727693474,"41":0.03622078750410516,"42":0.0003143946871917327,"43":-0.002787877226993272,"44":-0.011788962644816867,"45":0.038131959960887925,"46":0.010975569006739886,"47":0.017023706347834212,"48":0.012957968206164605,"49":-0.0287163770808551,"50":-0.03381867858190192,"51":0.010759228770768691,"52":-0.02073462765400831,"53":-0.008643029372298848,"54":0.010317994045229028,"55":0.04121654423407194,"56":0.008604182664487604,"57":0.0022697075913257056,"58":0.014946167257516454,"59":0.05016478642519604,"60":0.019047547867293277,"61":-0.04513892113745175,"62":0.02358737788590305,"63":0.0023141455631813853,"64":0.026197406004838598,"65":-0.049382359162953464,"66":0.02292538370547787,"67":0.009008424225337833,"68":-0.009742842264088237,"69":-0.008907913146825899,"70":-0.04455279542071116,"71":0.013229621374764392,"72":0.01016624388073735,"73":0.005025934681726751,"74":-0.030043384341308474,"75":-0.03917206872746198,"76":0.021674365428806915,"77":-0.038754640933121,"78":-0.01699196298680208,"79":0.057443431470459154,"80":-0.04230043535789393,"81":0.023768097643465616,"82":-0.007318457549961786,"83":-0.008820188805001456,"84":0.02643803866492458,"85":0.055279167602961705,"86":0.028379158403478634,"87":0.000025102673849614913,"88":0.069697229581338,"89":-0.014788229604813552,"90":0.026637318409038477,"91":0.009385674634058478,"92":0.0027230926461284805,"93":-0.005776988941969893,"94":-0.04383992222125727,"95":0.030531556140720166,"96":-0.02483475837636989,"97":-0.024161413962660153,"98":0.03646772809981115,"99":0.010801981600150914,"100":0.010607253766629455,"101":-0.011667259474075221,"102":0.03375954582788568,"103":-0.003222969869113061,"104":-0.008489227886029963,"105":0.005236622300793858,"106":0.005686086111463532,"107":-0.02359603080517503,"108":0.045080858484228,"109":-0.05423624527282263,"110":0.01842378674969134,"111":-0.01510667362501031,"112":-0.005658954875043326,"113":-0.04355163289342152,"114":0.02635056853849522,"115":0.003200055067449951,"116":0.04013983789449855,"117":-0.06230883241536256,"118":-0.0017155272800124307,"119":0.034775586242849404,"120":0.0114969216575322,"121":-0.0335941052066158,"122":0.00256545364549664,"123":-0.03113535151834465,"124":0.03942786124011337,"125":0.029993702920407088,"126":-0.007744399085152648,"127":0.019602968277476974,"128":0.00248556247318901,"129":-0.033495878508808044,"130":0.04079287947384368,"131":0.04642510671566336,"132":-0.011234309376729913,"133":-0.031944483973521356,"134":-0.056304471093878525,"135":-0.08910681882886748,"136":0.002572588719677723,"137":0.04713953153445654,"138":0.029337114857026177,"139":-0.013528899123080567,"140":0.020146376121193885,"141":0.02051274470736911,"142":0.023458407022837555,"143":-0.013598974492879739,"144":-0.017305145122348858,"145":0.021871089227699893,"146":-0.03775300864358425,"147":-0.02532387343264336,"148":0.023526231881381823,"149":0.004190109181266432,"150":0.007544554430279105,"151":0.025219653319265223,"152":0.012479378636848311,"153":0.045697169816655184,"154":0.0019219933230474986,"155":0.011997246855041192,"156":-0.016769547344930292,"157":-0.019213510565803452,"158":-0.01572212857740977,"159":0.006260444696026101,"160":0.009650412630711671,"161":-0.018402443609032246,"162":0.015987186337131882,"163":0.026857705890831342,"164":-0.01680500966672627,"165":-0.013451926586785823,"166":0.02341862329724057,"167":-0.03917634246275415,"168":0.02966770574986156,"169":-0.015367083412405893,"170":0.02522168482761632,"171":0.019874086238274552,"172":-0.006777228219527175,"173":0.055629362968986594,"174":-0.0073793129454653925,"175":0.016852665183058953,"176":-0.030170089699957454,"177":-0.04663295252265995,"178":-0.03689709069013462,"179":0.005065941645459368,"180":-0.0004414218366512805,"181":0.05650099238887577,"182":0.05654742242945441,"183":0.033353047635114326,"184":0.04170281110060722,"185":0.004506357832526172,"186":-0.03859704499656924,"187":0.0484517618739334,"188":-0.038145878564444624,"189":0.032401874850208054,"190":-0.01650632052945231,"191":0.017472436858346464,"192":-0.024521609369885736,"193":0.005580263781550787,"194":-0.020765267292274403,"195":-0.007151421843594129,"196":0.0023021027309657544,"197":-0.035465036389845245,"198":0.02593255779806526,"199":0.015108914064525976,"200":0.0004941009083006101,"201":-0.0283959928549799,"202":0.032234715357657345,"203":-0.006571135426172453,"204":-0.028161300041716117,"205":-0.004422920219393468,"206":0.03285915630453832,"207":-0.02863051881739177,"208":-0.00974499547569962,"209":0.06760637351680249,"210":-0.046704585278544604,"211":0.03288063796685372,"212":-0.03580584125347756,"213":-0.04615292925990406,"214":0.028499806038932454,"215":-0.011387183850255765,"216":-0.04444525240349417,"217":0.03606264239086381,"218":0.004074569413454281,"219":-0.04951017430038915,"220":0.00378362013395895,"221":0.012621266926816964,"222":-0.008254365995986737,"223":0.021812069821073383,"224":-0.00906722495005972,"225":0.04691258276470325,"226":-0.057330894862855246,"227":0.03941927081058494,"228":-0.006520059985512672,"229":-0.06185000643146647,"230":-0.027918068523853756,"231":0.016270150475058427,"232":-0.02724901627866548,"233":-0.004632307805868098,"234":0.02410029924750439,"235":-0.02703689435083045,"236":0.018260679024389936,"237":0.047412980553341255,"238":0.05152166841506878,"239":-0.004225484377498547,"240":0.004455171099729058,"241":-0.03409527075213916,"242":0.00011922028040483181,"243":0.01766015347775919,"244":0.0028645826388957957,"245":-0.049475360686946405,"246":-0.014306958355989711,"247":-0.03612091921995418,"248":-0.03352370640746122,"249":0.011724752565321305,"250":0.029776356278660696,"251":0.005687348456860672,"252":0.01010635197753992,"253":0.036959126816818136,"254":0.011310069655628823,"255":0.07968556446851142,"256":0.06303961377442528,"257":0.004260090744618859,"258":0.06470241846639306,"259":-0.03945719954532288,"260":0.04925677913788891,"261":-0.009775236636391823,"262":-0.034361277118260834,"263":0.047825870005636456,"264":-0.014409213199560927,"265":-0.02779668618955661,"266":-0.020462581911738397,"267":-0.003495457210089489,"268":0.014424057421023444,"269":-0.0035828063569720648,"270":0.04773648506285977,"271":0.05297584179638909,"272":-0.005271916981719444,"273":-0.0033270407022419715,"274":-0.009593101601617892,"275":0.023273535329796834,"276":0.016906741379398082,"277":-0.015655797082388984,"278":0.015145352574042831,"279":0.09054847350398695,"280":-0.053574204963373465,"281":-0.014495344720058728,"282":0.04881601240194606,"283":0.007001849665033546,"284":0.030730403540323584,"285":-0.01581231788405032,"286":0.007832008380532825,"287":-0.0036805855335848444,"288":-0.007907350562254183,"289":0.01348620375305624,"290":0.04442240491469344,"291":-0.0007211411499074278,"292":0.01096535136766882,"293":0.038974958275027734,"294":0.021686941331828132,"295":-0.02943038801009869,"296":-0.023218621125528992,"297":0.021651223976825854,"298":0.011510864587768553,"299":0.06673059265276163,"300":-0.009895309775866072,"301":-0.015253730882974244,"302":0.0007939133712139624,"303":0.01714214759515844,"304":-0.007038969514984495,"305":0.01573669874617152,"306":0.01632877970175347,"307":0.004530000878393839,"308":0.02541900843160785,"309":0.0151460485049462,"310":0.02101554455142622,"311":-0.04445629250614083,"312":-0.059507836321121874,"313":-0.010304201534536418,"314":0.014035581067811196,"315":0.026239639319146912,"316":-0.04858845175575259,"317":-0.03994166055096962,"318":-0.0066426530060273185,"319":0.020728507594865053,"320":0.005148127450119085,"321":-0.02008007358964934,"322":0.011392971887822314,"323":0.014863210182205766,"324":0.034499594321067084,"325":-0.007423247413188357,"326":-0.027360663457237686,"327":0.030220916277485615,"328":-0.019839823464897474,"329":0.035014028530185155,"330":-0.02877253898695421,"331":0.02160676655173772,"332":-0.05853153281917734,"333":0.02841697954806234,"334":0.02404035637617102,"335":0.03556392513641636,"336":-0.013095040396183697,"337":-0.036387624254664915,"338":0.06928830097469461,"339":-0.021674764415102306,"340":-0.01693069768044462,"341":-0.038394073565006966,"342":-0.026361874786329884,"343":-0.09226299940522813,"344":0.0045815687484621935,"345":0.009855782550618612,"346":0.06153780432824376,"347":0.01797807086608191,"348":0.020672027103023953,"349":0.08502251549460117,"350":0.02308875203021626,"351":-0.001656402806839234,"352":0.03452500114603397,"353":-0.013007235466639627,"354":-0.010049095862315255,"355":-0.07404715641301075,"356":-0.009889509950684229,"357":0.05974174920540582,"358":-0.07117473753386683,"359":0.006081108597290848,"360":-0.016392502746707692,"361":-0.017353597332098483,"362":-0.0015121794879495835,"363":0.04605039801158122,"364":0.03959803396421687,"365":0.00947233269990409,"366":-0.03775043242969158,"367":-0.022125302429127313,"368":-0.0431907703590073,"369":-0.026959414300384225,"370":-0.01198692711920738,"371":0.024567066019427188,"372":-0.05462730252689405,"373":-0.004662293323798165,"374":0.040171471290013576,"375":0.041896647571947894,"376":-0.007544534012632345,"377":-0.03436071990489315,"378":-0.005049361203578861,"379":-0.02449829323761549,"380":-0.026174468386820013,"381":0.026430504360991723,"382":-0.025793565069006916,"383":0.05192144092769364,"384":0.01726148646465131,"385":0.022567767955746085,"386":-0.03416819592213864,"387":0.053966308056931374,"388":0.08332849507046129,"389":-0.0028837080776341747,"390":-0.022999912861957263,"391":0.034412618446912235,"392":0.04078443192246687,"393":-0.03830136400779979,"394":0.0074730189749463985,"395":0.0014853086083928724,"396":0.0639824922779366,"397":-0.016519403493817083,"398":-0.041172384040282166,"399":-0.021141205433596655,"400":-0.017269280093812452,"401":0.013009108491040552,"402":0.02598639534597514,"403":-0.050866560369092324,"404":-0.03597659683248118,"405":-0.07379535307284744,"406":0.006259178027636951,"407":0.033824017132252554,"408":0.011478956193314504,"409":-0.03317691278742431,"410":0.005610965578555007,"411":0.02136830721065468,"412":0.02935266379642495,"413":0.007222378425975506,"414":0.0161557307632961,"415":-0.04919386254522549,"416":0.06980436275586978,"417":-0.0046508645372108194,"418":0.03507198535278657,"419":-0.07697361654340082,"420":0.014432143875841373,"421":-0.04824287168500051,"422":-0.03708679258718264,"423":0.011271825259341466,"424":0.00981386825828441,"425":0.05282870360073184,"426":0.039342309274946946,"427":-0.030563817316355785,"428":-0.017180592350062144,"429":-0.019061200810078067,"430":-0.0017243480866939512,"431":-0.0294573128948064,"432":0.007339832250894808,"433":-0.02577933377888611,"434":-0.0772883324309121,"435":0.0669802981021115,"436":-0.011937790829946586,"437":-0.0131594518515892,"438":-0.008187419177635722,"439":-0.0008546955724067962,"440":-0.024820179263555772,"441":-0.0041981689755739475,"442":-0.006256118631962558,"443":-0.020416763228671843,"444":0.02425778452328002,"445":-0.007396451360553539,"446":-0.013706630951207516,"447":-0.05165515841048695,"448":-0.032641112898722895,"449":0.004520823327277769,"450":0.026330951716029612,"451":-0.05782199988434971,"452":0.006508660522778428,"453":-0.002862508340220167,"454":0.025901767860621473,"455":-0.012772170387029805,"456":-0.015711621512699815,"457":-0.01432043086231643,"458":-0.04919111688532721,"459":-0.03149445839254069,"460":0.029783770232321802,"461":0.015743183464295474,"462":0.0051110847563160325,"463":0.018334602279246836,"464":-0.006874847690756377,"465":-0.007595105638360593,"466":-0.0104112086653537,"467":-0.04018347096506984,"468":0.0076508585106430885,"469":0.00012155550764793866,"470":0.03418795375419813,"471":0.04083462115563477,"472":0.019387929429112334,"473":0.0003589083226132169,"474":0.029683405972290133,"475":0.02799128314536801,"476":-0.07945733045542415,"477":0.05873966867309485,"478":0.008122510800319256,"479":-0.013132317529053387,"480":-0.011159637627344676,"481":0.01399690636696119,"482":-0.028681250565789698,"483":-0.006947271218754225,"484":0.05467072339728414,"485":0.007947971635435062,"486":-0.01782481686533049,"487":-0.0527352008905893,"488":-0.0426518055194585,"489":0.010000788670696155,"490":-0.09482133673398256,"491":-0.007059588818734563,"492":0.05309416231122198,"493":-0.0046035862966400855,"494":0.021519068156542923,"495":0.04545971429207835,"496":0.048573017531597804,"497":-0.04856597776420916,"498":-0.03313131528412318,"499":0.0289823947286929,"500":-0.020491675099971483,"501":0.023010174782918395,"502":-0.022000823757035725,"503":-0.014514649972475632,"504":-0.039591839063162326,"505":-0.0235450381502911,"506":-0.03852771543154481,"507":-0.03243753354613006,"508":0.013034696197911692,"509":0.02608214069449223,"510":0.03523380047425565,"511":-0.026536132301310446,"512":0.024180788387503916,"513":-0.005695644443696096,"514":-0.020009070023847046,"515":0.006764581631180293,"516":-0.02055093236927384,"517":0.05568886651300436,"518":-0.006342549962476028,"519":-0.06015800653036751,"520":-0.05768979127684531,"521":0.03156439303432057,"522":0.032921831088041156,"523":-0.022668641519908536,"524":0.005472715165371206,"525":0.07057779936136944,"526":0.011155787449596848,"527":0.05755476195468537,"528":-0.012098629090887346,"529":-0.011232801376794381,"530":0.018848291905625144,"531":0.03819285136077862,"532":-0.013039478139895533,"533":-0.0015534842550107323,"534":-0.04700810477231418,"535":-0.031833507198682255,"536":-0.02870796354176416,"537":0.022380709035415197,"538":0.03208953961255637,"539":-0.00819651556406075,"540":0.0037149461735027623,"541":0.030910017426172155,"542":0.029326346682820647,"543":-0.009297647398157922,"544":0.006903759552952448,"545":-0.021095145243101115,"546":-0.06397032442436217,"547":-0.03493528893575418,"548":-0.008128807290020214,"549":-0.03881428530145466,"550":-0.0138061925384755,"551":-0.0773140699722843,"552":0.04012932333841101,"553":-0.036516359273382856,"554":-0.027592722786692135,"555":-0.036146678854277615,"556":-0.026797822867084698,"557":0.013153329260802787,"558":0.01958751262203324,"559":-0.020247251768800524,"560":-0.01835793566016158,"561":-0.01683452648504994,"562":0.010441268226749048,"563":0.0108479146597615,"564":0.02326391201355384,"565":-0.03993750602883673,"566":0.019356514656311226,"567":-0.0011757213297169389,"568":-0.0019793555855626265,"569":0.03469730173462639,"570":0.029920077032764645,"571":0.0003744392424751111,"572":0.05505692269797027,"573":0.023069627294468334,"574":-0.0012273035454829122,"575":-0.014783931922347726,"576":0.029098587264155335,"577":0.003709997384679743,"578":0.02176670442902758,"579":-0.042477753499022074,"580":-0.06886562771024786,"581":0.022845063425389108,"582":-0.055550109241266535,"583":-0.03804330564124779,"584":0.0036146012590757997,"585":0.05079436635622182,"586":0.014153573277476595,"587":-0.0025743434054906742,"588":-0.040493198205196174,"589":0.026790495601828765,"590":-0.017607964957491413,"591":-0.03409457024238214,"592":-0.017035543317660863,"593":-0.017106101851092986,"594":-0.04050251898815294,"595":-0.015507201520902245,"596":-0.015775426135456398,"597":0.028821857222258943,"598":0.022563529477089964,"599":0.027092458608834406,"600":0.01850457094366029,"601":-0.03480571894716211,"602":-0.0287531362123631,"603":0.02446073552389135,"604":-0.013658422814396299,"605":0.0048715916261075996,"606":0.05011060391417995,"607":0.00930215482632298,"608":0.03383800390139236,"609":0.04916154180430165,"610":0.025901589430390583,"611":0.06769826486199937,"612":-0.02528170913789874,"613":-0.015789492377603808,"614":0.01613628604638256,"615":-0.03708487629231867,"616":0.029754973917216865,"617":0.00509787978243104,"618":0.030353191883922093,"619":0.0398851365535262,"620":0.03818938530533783,"621":0.006203802696964907,"622":0.0022437968057472265,"623":-0.04161154483649281,"624":0.001086697842927157,"625":-0.005259376062622522,"626":-0.016881939041508944,"627":0.013188222919285454,"628":-0.014907151197833639,"629":0.02940145281634747,"630":-0.020253848311437485,"631":0.04617991981150466,"632":0.015389417229987712,"633":0.01366835296911549,"634":0.055678952561512125,"635":0.032839335841155955,"636":0.02242258650865447,"637":-0.007380076648288654,"638":0.038346360341739535,"639":0.02744712901982889,"640":0.016706151219601787,"641":-0.018404949832252406,"642":0.020098709699406584,"643":0.04055372777147753,"644":0.05202842193610575,"645":0.03682620638881818,"646":-0.011461609992014204,"647":0.03385540725133225,"648":0.00915942155282826,"649":0.00020429877421856217,"650":-0.01309527648233454,"651":0.044811514385418874,"652":-0.04907780844431013,"653":-0.023901001681626538,"654":-0.030779171607962535,"655":-0.00492606520733991,"656":-0.005978212287280598,"657":0.0063268067167540475,"658":-0.012339756858843297,"659":0.028428300853927765,"660":-0.037319006706931064,"661":0.05285447889912157,"662":0.013967692014681002,"663":0.012666946971739647,"664":-0.007909212333399016,"665":-0.020921544131055188,"666":0.010918888341733195,"667":0.021089633973707406,"668":-0.016346744826294952,"669":0.03446112789657053,"670":-0.04674524753702555,"671":0.0011687153328365403,"672":-0.025917248893128308,"673":0.008006692185484174,"674":0.05430643861450073,"675":-0.01667135814792052,"676":0.034701151023480335,"677":-0.0023618146717802055,"678":-0.020149406993447902,"679":-0.024050673866879032,"680":-0.0014906006418994042,"681":0.023532253898301533,"682":-0.010447973495059099,"683":0.02576544777796662,"684":0.03625502897244667,"685":-0.01332746453436071,"686":-0.013928309816894465,"687":0.026473819874821905,"688":-0.007572529217874187,"689":-0.01262403727541226,"690":-0.004728940148212982,"691":-0.0878146934629335,"692":-0.017028007912620952,"693":-0.0023484474720395078,"694":-0.028274738021550137,"695":-0.024425665526301238,"696":0.030200737182017608,"697":0.018039425630127347,"698":-0.04600368803542919,"699":-0.011922324982045719,"700":-0.007051365296184401,"701":-0.020467541377927768,"702":0.037540604088543844,"703":0.015443547776758467,"704":-0.045080387545843606,"705":-0.009356412870546657,"706":-0.03732981969123867,"707":-0.0035848642870227577,"708":0.09475763548396594,"709":0.03204533831121767,"710":-0.002184408461716005,"711":-0.02231205545958366,"712":-0.028159908625723783,"713":0.06029774480818895,"714":0.014223006262559115,"715":-0.0015411693336699784,"716":-0.015743212014058816,"717":-0.016572661399917605,"718":-0.0527524017422003,"719":-0.007980359697716408,"720":0.013332344133823342,"721":-0.052249596586867994,"722":-0.011089046989881822,"723":-0.031316028445990234,"724":0.005117161680563231,"725":0.015040716364809765,"726":0.04701876783063948,"727":-0.003247959603077126,"728":-0.035216785551310636,"729":-0.010787672635133385,"730":0.006688068622484934,"731":0.020609426004016204,"732":-0.009324355834606404,"733":0.0037398053160492524,"734":-0.056788044272084004,"735":-0.017308838907967517,"736":0.03613487046259622,"737":-0.007885672590995537,"738":0.012488797090260484,"739":0.02711921885548774,"740":0.0029335193818601666,"741":-0.02921048010037415,"742":-0.017612089715036333,"743":0.01961414013573939,"744":-0.06471710047131098,"745":0.024694434461646105,"746":0.01828506675566504,"747":0.01068292439362051,"748":-0.00594253180441879,"749":0.005871799373023814,"750":0.029495201548028604,"751":0.024779906021116346,"752":0.019655117532185545,"753":0.06420170889987518,"754":0.023286205050801645,"755":-0.028959931994550606,"756":-0.01535885445083013,"757":-0.010585232925972094,"758":0.05231355524150252,"759":-0.028179513718687765,"760":0.043341047536558534,"761":0.027002832676908797,"762":0.0385988202850848,"763":-0.03868548680288731,"764":0.0351543538991475,"765":-0.048946344478119935,"766":0.042771486956132775,"767":-0.011694050285276389,"768":0.0040078959249347495,"769":0.05792524933225268,"770":0.013478266733520133,"771":-0.004078001682920951,"772":-0.008353130448119287,"773":0.06894047696731034,"774":0.014733476022151807,"775":0.006439611056294098,"776":-0.005237386201718265,"777":-0.01200973672398063,"778":-0.005490331798414163,"779":-0.05467715532137685,"780":-0.0413605941747035,"781":0.03979982299943089,"782":0.02698405281109047,"783":-0.0004473864568181325,"784":0.0288836817490802,"785":-0.014165920255933518,"786":0.02220644719466364,"787":0.0021841662020255096,"788":-0.05654245491543281,"789":0.03481846884884058,"790":0.011849493788326743,"791":-0.02819002796906909,"792":-0.011130823202084557,"793":-0.031359603192819836,"794":-0.01760428283079273,"795":-0.0500857212319177,"796":0.02416765914961574,"797":0.0518349139274027,"798":-0.04506941222305725,"799":-0.04012974967700304,"800":-0.030858545681900995,"801":0.06008198004193964,"802":-0.048316946426605896,"803":0.018672926054280236,"804":-0.01312713416513207,"805":0.05266059176573823,"806":0.029750480512385106,"807":0.06448806450811828,"808":-0.003562285388522701,"809":-0.013539168669892332,"810":0.030451490215249406,"811":0.033761958692208514,"812":0.032470355189992174,"813":-0.044707945743583936,"814":0.011327797660608839,"815":0.01310346850623053,"816":-0.01966994969499125,"817":-0.02717382426463684,"818":-0.03044100586130665,"819":-0.04358418063534163,"820":-0.025472420035665373,"821":0.008438629795139697,"822":0.05415693556565396,"823":-0.02463183165345016,"824":-0.007157157892175016,"825":-0.009705658210261784,"826":-0.005062936386196157,"827":-0.023783703936311313,"828":0.10832352564140611,"829":-0.01241528338487098,"830":0.04683437134241456,"831":0.032162541767814176,"832":-0.06801525581970622,"833":0.0004013462806962758,"834":-0.020597073486664556,"835":-0.039673993758304354,"836":0.013535376916141456,"837":0.00024264812141334133,"838":-0.0054520837898735875,"839":0.034836322427331846,"840":0.050705592230887976,"841":-0.036150547342905466,"842":0.02541150154691034,"843":-0.047763124226927266,"844":-0.044793848656332666,"845":0.011592113389728759,"846":0.02332674665492203,"847":-0.041471932282679994,"848":0.028516672556916436,"849":0.001369708946171941,"850":0.02892482181191087,"851":-0.05143470086209191,"852":0.0021053243628500907,"853":-0.0392745918002181,"854":0.009812892945294282,"855":0.014859045689112484,"856":-0.01811299363739711,"857":0.014452093998530079,"858":0.0023372793383254742,"859":0.05789685172966768,"860":0.03188207303850713,"861":-0.026892278376856694,"862":-0.003386273466398208,"863":0.009972957718779376,"864":-0.03299959005564048,"865":0.011786571137260109,"866":-0.00356755503745905,"867":0.07205771317557486,"868":0.01083368650671197,"869":0.019357520922238927,"870":-0.023054223258443706,"871":-0.01331502665142324,"872":-0.03111656053849818,"873":-0.041092328623076664,"874":-0.031044989839445387,"875":0.027434742830567474,"876":0.013659880920322503,"877":0.0090146591071312,"878":0.010945119518168811,"879":0.030808932963685094,"880":0.0091995485743373,"881":-0.01357796628557228,"882":0.031714733837190076,"883":-0.0031661640729797615,"884":-0.036333021543159,"885":-0.02426253149254132,"886":0.0313143116692247,"887":-0.03659951531861608,"888":0.01302996306331144,"889":-0.0033908783014426815,"890":-0.01779206270227739,"891":-0.04678537427120694,"892":-0.024074550859958837,"893":-0.035400883520765654,"894":0.014866611199945777,"895":-0.011884496507656009,"896":0.03881505705112253,"897":-0.07477596072296802,"898":-0.009854515202449518,"899":-0.024555008743028052,"900":0.0012796988458214345,"901":-0.0056973598755491435,"902":0.03894048073879029,"903":-0.008331352562891739,"904":0.03537935819170182,"905":0.01974595528402927,"906":0.027416890513823303,"907":-0.02553468861173579,"908":-0.0030395841899937145,"909":-0.04502620406294107,"910":0.0007493992400214689,"911":0.007424530258409662,"912":0.05109782683571263,"913":-0.016071131800920475,"914":-0.006799527977433817,"915":-0.0498057538520135,"916":0.004285749519639288,"917":0.006909249648620065,"918":0.03700244948465386,"919":-0.004647874188160572,"920":0.06942278699678209,"921":-0.012315159650410934,"922":-0.03408005066590337,"923":-0.006056795546039367,"924":-0.006760959747016899,"925":0.04296948216054156,"926":-0.003260341356919674,"927":-0.003570359499356743,"928":0.03679869849829057,"929":0.01595860544632576,"930":-0.0034215038676105782,"931":-0.002466004986018771,"932":0.008696618031315138,"933":0.00815111306235191,"934":0.012213749508971188,"935":-0.018758907025361433,"936":-0.01384198666545939,"937":0.008304899260178555,"938":-0.045825967659679244,"939":0.013504493275823655,"940":0.05198537343282801,"941":-0.01548176052275911,"942":0.022242553576289112,"943":0.030632290200674248,"944":-0.00028159836411520634,"945":-0.006475057358849313,"946":0.04849773308571907,"947":-0.010911242370803806,"948":0.06923657023655816,"949":0.028939289530068635,"950":-0.013292976007227874,"951":0.011722737573202847,"952":-0.02603734131638865,"953":-0.0278586512192287,"954":-0.02976741466467004,"955":-0.0031596216657406883,"956":-0.026929669069394445,"957":-0.0582457571987248,"958":-0.019213102070625116,"959":0.01217094440871685,"960":-0.020786991337823503,"961":0.024456136744322555,"962":-0.045419380870870815,"963":0.001026569879462904,"964":-0.017978671943755287,"965":0.02045368039889518,"966":-0.014241757101883247,"967":0.006830619826304037,"968":-0.0009243036929196058,"969":0.0010237200211151258,"970":-0.023254511730309565,"971":0.05423849103545044,"972":0.0017001004619896431,"973":0.012862453169726631,"974":0.014551725952129979,"975":0.01731315850665129,"976":0.022178325687772157,"977":-0.012625339267008548,"978":-0.0003049497440077894,"979":-0.02084856538031009,"980":-0.021622218968233353,"981":-0.020494236710186634,"982":-0.008400251674492298,"983":-0.029521701828594867,"984":-0.00821743377892927,"985":-0.001956208725022439,"986":-0.037556413636440945,"987":-0.059525460037174446,"988":-0.008604305960549653,"989":0.013307333333007324,"990":-0.0014756623666270202,"991":-0.007881976926093602,"992":-0.0018000102342298054,"993":0.0030790760735763183,"994":0.046043116132288356,"995":0.01077455764311331,"996":0.04493556671276204,"997":0.030546702422213086,"998":-0.06501047086370035,"999":0.00723501031378846,"1000":0.0158225459483628,"1001":-0.008991000620248777,"1002":-0.0165265829418046,"1003":-0.0022617065036820245,"1004":0.0034237471181709574,"1005":-0.023309951580977574,"1006":0.06261066868743102,"1007":0.024400092293662454,"1008":-0.01385355187955128,"1009":-0.03526514835439651,"1010":-0.045502565385129236,"1011":-0.05077591274249103,"1012":-0.0072979015521934315,"1013":0.04668865229178586}},{"sx":1,"sy":1,"depth":1014,"w":{"0":0.03411490674917953,"1":0.012420935537014816,"2":0.009921832850401989,"3":0.01786685269879023,"4":-0.0297407375645902,"5":-0.006799187130666122,"6":0.0027870990520747927,"7":-0.06099762280280193,"8":-0.0016034357634217259,"9":-0.04201855818821388,"10":0.059589179996449956,"11":-0.002189365015468914,"12":-0.007110407421211212,"13":-0.06522978192694984,"14":0.008222894897976488,"15":0.011027434364779164,"16":-0.0020137151689621946,"17":0.007993618688061992,"18":0.04007693767013647,"19":-0.03973197917993814,"20":-0.034954319342492664,"21":0.010925234729259388,"22":-0.0017581717557408364,"23":-0.007258347936444816,"24":0.027293865022165548,"25":0.009901141450118264,"26":-0.03894257323446653,"27":-0.02912031879676568,"28":0.0017255303228997146,"29":-0.01920391780991997,"30":-0.056531327097682466,"31":-0.023122812501538345,"32":0.011042832352016247,"33":-0.07156693160840491,"34":-0.0015895022653469057,"35":-0.046305947375941583,"36":0.0005850436715829411,"37":-0.013986343151738542,"38":-0.04266243934750368,"39":-0.019270896274822848,"40":0.05302766256224243,"41":-0.0005692383736827586,"42":0.03220095391319672,"43":-0.0862193676227714,"44":0.02144043672146701,"45":0.014936907431449532,"46":0.0015485802297942961,"47":-0.020686624663920836,"48":0.020511068378492873,"49":0.008837293188985176,"50":-0.003659711410758013,"51":0.035383417628110536,"52":-0.011020195347426515,"53":-0.052323237317995826,"54":0.04778592377738725,"55":0.007915053513898665,"56":0.02119423453795096,"57":-0.011376434561555964,"58":0.043607926247365,"59":-0.01240122996676302,"60":0.013943768547264932,"61":0.04194562420831746,"62":0.001700287660352828,"63":0.007545472365723383,"64":-0.0316412420880011,"65":0.000307594446550066,"66":0.021517630075098652,"67":0.03063870988553642,"68":-0.004925913899582974,"69":-0.03988547552676985,"70":0.03677354415517554,"71":-0.0068075346693200495,"72":-0.01815958024151045,"73":-0.007055488466827688,"74":0.049275887013324846,"75":-0.02499656714870125,"76":-0.023418461071868343,"77":0.02002009038829952,"78":-0.06663085040335673,"79":-0.010458377419785577,"80":0.023489815283197747,"81":0.009902861240003483,"82":0.023201327670772896,"83":-0.014006624361262337,"84":0.0066213316059837235,"85":0.04459990689431815,"86":-0.03046259553636997,"87":0.0026590972667089865,"88":-0.03856958037557999,"89":-0.007210067327326036,"90":-0.008199016851782372,"91":0.0364812106329911,"92":-0.055496475357034836,"93":-0.00705059777361969,"94":-0.10237125988066982,"95":-0.004731389521426777,"96":-0.020128649204013423,"97":-0.005713157082194208,"98":-0.03375704776539306,"99":-0.0006382124221046967,"100":-0.033215450189309735,"101":0.03362326435012907,"102":-0.025290340275624306,"103":0.01021900768813412,"104":-0.05497693188205938,"105":0.0262988650830653,"106":0.00216000274450955,"107":-0.00538568519402362,"108":0.0493535872269744,"109":0.023450115522739606,"110":-0.026041103946537286,"111":0.048495486218640055,"112":-0.005033778602842139,"113":0.033692988389556346,"114":0.030907617414732066,"115":-0.049149788220584016,"116":-0.027139208376344568,"117":-0.0026602257124186263,"118":-0.02283403823978992,"119":-0.0036651015679807163,"120":0.04566054860378786,"121":0.024553985365824944,"122":0.019832900023365956,"123":0.025665190074635233,"124":-0.022900967137228778,"125":-0.01152198743637763,"126":-0.001867327553303755,"127":0.05216867485741342,"128":0.04078965099164412,"129":-0.0030864504110389105,"130":-0.007872433134517782,"131":-0.009186162745051076,"132":-0.03069478518221379,"133":-0.03280702475462872,"134":-0.023524941416429267,"135":0.07123105921771518,"136":-0.040521893312160856,"137":-0.027803262373360945,"138":-0.03757774242382066,"139":-0.03206046774166202,"140":-0.017521998210224255,"141":-0.02534951781026507,"142":0.028338862265745102,"143":-0.01931032820717091,"144":0.05016070848002634,"145":-0.02530694475125813,"146":0.007498923562546825,"147":-0.008389647735478544,"148":0.025971899388013486,"149":0.053775316497649585,"150":-0.04564962519202491,"151":0.0022526886702839755,"152":-0.0217345240465359,"153":-0.04550189959690527,"154":0.021804942604107622,"155":0.0043925609912741715,"156":0.07425428372921014,"157":-0.010727653990526028,"158":0.04730445694326449,"159":-0.035201058824725164,"160":0.006698765470715885,"161":0.056803575793689554,"162":0.008899662853577642,"163":0.06984434626558865,"164":0.06241942967057688,"165":-0.07117532217945995,"166":0.03833551021069934,"167":-0.016449690795275834,"168":0.010272498769301183,"169":-0.04876851289298359,"170":-0.01196194351263276,"171":0.011745163870033699,"172":0.034353375311789475,"173":-0.020361109703866516,"174":0.004796136909205736,"175":-0.07206655342755353,"176":0.00531557429917312,"177":0.03612667742308292,"178":0.0485822098035946,"179":0.04018603883860421,"180":0.043275900626703515,"181":0.007212198715759511,"182":0.0204288612405305,"183":0.01728339591766825,"184":-0.01326510835425438,"185":-0.03789167524274321,"186":-0.011326756513490164,"187":-0.012511340741145311,"188":-0.006792286121823654,"189":-0.06431419800319263,"190":-0.026848986002302715,"191":0.0006976125145535891,"192":-0.030130628259387362,"193":0.04906582665023991,"194":0.040008645645934385,"195":-0.027409042418753284,"196":-0.027099734345715457,"197":-0.01875793470868595,"198":-0.015244387494014208,"199":0.044481672481006526,"200":-0.04312080780660138,"201":-0.012112672595311517,"202":0.017050841995232945,"203":0.05531563813197519,"204":0.01591396438332613,"205":-0.0329799200652495,"206":0.010792048750922174,"207":-0.0016476740555090798,"208":-0.00749499297712754,"209":0.015519776538683997,"210":-0.004704437004053689,"211":0.062240426518319465,"212":0.00252299928411356,"213":0.01255546944702546,"214":-0.03852968653015763,"215":-0.006678848966490871,"216":-0.04818829906310751,"217":-0.027097836361498363,"218":0.03094247634700257,"219":0.02522616305814023,"220":0.0006595821880836127,"221":-0.033111844267306165,"222":-0.012749551506806539,"223":0.028879274592146287,"224":0.025680096621229734,"225":0.030163238232188708,"226":-0.02702899547624961,"227":-0.013986164598430226,"228":0.032152905412982304,"229":0.019588673148719832,"230":-0.06080050737421641,"231":-0.03456357460699567,"232":-0.03523449989775613,"233":0.08521784307063673,"234":-0.0011363562363414105,"235":-0.0017833371461033933,"236":0.014303692503708533,"237":-0.007591768412832658,"238":-0.00803797272485946,"239":-0.025691192178966878,"240":0.0014558901646635283,"241":0.059313435835504594,"242":-0.00014466559631876893,"243":-0.017814896073630505,"244":0.04299295671825719,"245":0.0016551671578205836,"246":-0.021432247007807832,"247":0.02185862221595023,"248":-0.02216690516472414,"249":0.00019463147997506315,"250":-0.011100420652435864,"251":0.03516558388141072,"252":0.02821949620625196,"253":0.00338665610584815,"254":-0.02271657545771111,"255":-0.053297210342677405,"256":-0.006943776281806232,"257":0.03131208181265797,"258":0.0068555026723017025,"259":-0.0311146014219367,"260":0.02751548460308603,"261":-6.897760910782952e-7,"262":0.08587917433086335,"263":0.042073625341880916,"264":-0.008188543696893362,"265":-0.012001110226462707,"266":-0.05554240649353063,"267":-0.04710535163004061,"268":0.04681750013349623,"269":0.035376627693803835,"270":0.04025290650582064,"271":0.029477733355817833,"272":0.00635574911113537,"273":-0.06320304606182975,"274":-0.021551881215879795,"275":-0.017734619519042913,"276":-0.022066618996952468,"277":-0.042098336572732285,"278":0.03947474785050342,"279":-0.026595008544607737,"280":0.0012903258317236387,"281":0.02024084727058404,"282":0.051874653906633615,"283":-0.046224068624340364,"284":0.019136681923340143,"285":0.011165967736567318,"286":-0.059416835109796354,"287":-0.02329474500684382,"288":-0.006146321651981307,"289":0.03444342328128944,"290":-0.009778324921729697,"291":-0.002419231270194157,"292":0.038333735532184963,"293":-0.015357134339254733,"294":-0.022332539319247977,"295":-0.0392611653821729,"296":-0.01604041234764749,"297":-0.051042365086707626,"298":-0.017401441094767114,"299":-0.038259547112373976,"300":-0.061261571922340136,"301":0.015720802965930845,"302":-0.004227566196007341,"303":0.04833426825405958,"304":-0.038793967858715285,"305":-0.02082420605228161,"306":0.0447270654989276,"307":-0.06968067097495832,"308":-0.0061079138837639435,"309":-0.060463119254753034,"310":-0.0012823437768241385,"311":0.004577761140533456,"312":0.03296623299460043,"313":0.0176651059449637,"314":0.0009823319255434617,"315":-0.02099465828861238,"316":0.016486012422067726,"317":0.03052082157976135,"318":0.00472889308132969,"319":-0.00892718350858132,"320":-0.0003210731688604377,"321":-0.01792343195696937,"322":0.026047411173091894,"323":0.010215213443008436,"324":0.05968036021017764,"325":-0.0013917571806690166,"326":-0.05894271514751626,"327":0.015130324045370595,"328":0.003374240817406424,"329":-0.03939144462268481,"330":-0.06624340361938647,"331":-0.0015635823029907412,"332":-0.02731665423496716,"333":-0.07722708029804777,"334":0.01295652291476845,"335":0.04521862877867876,"336":0.02472131873223683,"337":0.054838040866980846,"338":0.05576840772742783,"339":0.05997513389537556,"340":0.10226097263057105,"341":0.018281262224011035,"342":-0.0063149088107036745,"343":-0.013071948635537223,"344":0.03572768299065968,"345":0.011098747950266946,"346":-0.020889014223865916,"347":0.044147016605681176,"348":-0.008225721215658493,"349":-0.007130019814778306,"350":-0.03217026760281277,"351":-0.023712364909295118,"352":-0.025741724121886304,"353":0.03022939638466562,"354":-0.012280208362718672,"355":-0.029893150468837507,"356":-0.023195081212061194,"357":0.01847521545846845,"358":-0.0008682939433905328,"359":0.0019837254024469273,"360":0.05293015539982855,"361":0.008167111107360406,"362":-0.00531678888512961,"363":-0.014760925756355285,"364":-0.02177367500137857,"365":-0.037731705094809324,"366":0.03454460857429152,"367":-0.009519671370339199,"368":-0.003763996790625127,"369":-0.0010251068898356993,"370":0.05336495044638082,"371":0.0405485852769614,"372":-0.04416755915520427,"373":-0.03580264813596531,"374":-0.031213896003431205,"375":-0.018879021494228033,"376":0.008277418053293156,"377":0.04760148661611001,"378":0.041685402638628376,"379":-0.03242686189468011,"380":-0.010119411512777588,"381":-0.026812298291662352,"382":-0.04472234461568345,"383":0.008976968171816965,"384":-0.026590009685812276,"385":0.028755791654129163,"386":0.0179628011879733,"387":-0.06726406992048338,"388":0.01224845454368989,"389":-0.009124226256055518,"390":-0.02574447746044862,"391":0.016008463469479,"392":-0.022685983630844838,"393":0.0035300416918338344,"394":0.04648101689400475,"395":0.11071292679876618,"396":-0.01867114303614374,"397":0.04146369526236683,"398":0.021399374000329784,"399":0.026688184244616945,"400":-0.0020581169949583813,"401":-0.0449775902061817,"402":-0.006977494699195969,"403":-0.01725974537292305,"404":0.04128238104094215,"405":-0.011987722898445064,"406":0.05312355333737918,"407":0.01550749766339766,"408":0.000942899136089271,"409":-0.01864404329490061,"410":0.023130990404391906,"411":0.001895453593865894,"412":-0.011810665221907737,"413":0.02971072385359218,"414":0.016225929302479684,"415":0.01091572415445752,"416":-0.008435743665772516,"417":-0.031011988852880288,"418":-0.00212173396259313,"419":-0.06836507881009726,"420":-0.034749824932624324,"421":-0.03250930906889731,"422":0.07145085870600143,"423":0.012445752239536933,"424":-0.013279472621709427,"425":0.010408832096668,"426":-0.039385796888127406,"427":0.042355002822072225,"428":-0.026426866528594432,"429":0.012921778137983878,"430":0.031218967890064255,"431":0.03652435484184773,"432":0.0069232878568816795,"433":-0.019044857708317407,"434":-0.001419042940714077,"435":0.005266026728037587,"436":-0.04318046373234315,"437":0.06259421259807504,"438":0.03414519259737197,"439":-0.009241932801851323,"440":0.042068412173424996,"441":-0.004203541012270172,"442":-0.05865403996845877,"443":-0.04628726998546112,"444":0.03735946828023687,"445":-0.05307979058256126,"446":0.04394436316224679,"447":0.0816523897483654,"448":0.048933464151351656,"449":0.00717684096864949,"450":0.033082352894315624,"451":0.0728466016205987,"452":0.04027242087671993,"453":0.04065126228364141,"454":-0.026846846656068974,"455":-0.024504595849890523,"456":-0.08221755280492722,"457":0.019436015964310598,"458":0.034166579591884134,"459":0.01458628837784304,"460":-0.03892384958982935,"461":-0.01833190312723875,"462":0.0026353682041440982,"463":-0.020742677101011332,"464":0.036594446487743106,"465":0.06891675806815645,"466":-0.014494233176786426,"467":-0.026540796819785627,"468":-0.01298173517575536,"469":-0.022882655096967474,"470":-0.01576503291279216,"471":0.018666663939325926,"472":0.001058324542852041,"473":-0.0026054085783379717,"474":-0.02942935455891422,"475":0.002055680772452193,"476":-0.0034474486179838265,"477":0.012561984508132541,"478":-0.0033749687518477988,"479":-0.003429946495372573,"480":-0.010610499555609772,"481":-0.010588034478949982,"482":0.025542863885648356,"483":0.004153115593397821,"484":-0.006477105170420552,"485":0.02602505988502495,"486":-0.05347183647447575,"487":-0.046105374991813025,"488":-0.07125984376604777,"489":-0.04175039178576456,"490":-0.016271500891698217,"491":0.028453262430837952,"492":0.010723581694834828,"493":-0.0181427363193189,"494":0.009597904367489123,"495":0.03486544037232164,"496":-0.002790557823963319,"497":-0.020967958400043823,"498":0.04308201834562767,"499":-0.028084821844130588,"500":0.027428202902140156,"501":0.010466352598121433,"502":0.0010421940009921287,"503":-0.050104526709781015,"504":0.048420271840257136,"505":0.05583517636196837,"506":-0.030575963918559962,"507":0.04090235911259511,"508":0.015961954306421614,"509":-0.06707138499771786,"510":0.0065987102730170576,"511":0.04798094512728207,"512":-0.01653696829052078,"513":-0.013578489037094212,"514":-0.006353325613592892,"515":-0.041896792472428265,"516":0.0038984087747075116,"517":-0.032029273792929636,"518":0.0029935451737207307,"519":0.029560024727911183,"520":0.040424480567192354,"521":0.008255748462044984,"522":0.009828269342274501,"523":-0.023705735607118333,"524":0.030409641173444982,"525":-0.03625623461366197,"526":0.03237549863583315,"527":0.022129271019531462,"528":-0.019788947425046378,"529":0.0033729917813040923,"530":0.04421914961393176,"531":-0.038026442939263966,"532":0.0010355732529425971,"533":0.013182256192160551,"534":-0.0524405795138132,"535":0.025566661286018776,"536":0.011696987233062525,"537":-0.011521217926572104,"538":-0.03150529884167932,"539":0.011553469074840986,"540":0.050756681701099086,"541":0.000032951637369760266,"542":0.03347725975245168,"543":-0.040106142521609316,"544":-0.03179025789384549,"545":0.03677050487451239,"546":-0.02724796207676969,"547":-0.011555634654133928,"548":-0.009994660640428924,"549":0.000553039847261491,"550":-0.055307648338878926,"551":-0.04161747104315308,"552":0.08662949807531631,"553":-0.016677429016539826,"554":-0.015638612453095408,"555":-0.03861026884318185,"556":-0.04686935489000151,"557":0.030972546601383325,"558":0.00872789338769979,"559":-0.05483791208234657,"560":-0.030291790737776735,"561":-0.014293592436245114,"562":-0.054358509998174216,"563":0.014330904161240918,"564":-0.03442010036682805,"565":0.03555809511388234,"566":-0.03919105574504326,"567":0.008899035460539292,"568":0.017452810644484697,"569":-0.07126547006585048,"570":-0.02103699740065724,"571":0.044918514525604344,"572":0.01864237331666861,"573":0.0055700827415997725,"574":-0.005157203808523315,"575":-0.014722268898938145,"576":-0.007231220635079183,"577":-0.01231293302219367,"578":0.029325149439378844,"579":-0.005467914987869672,"580":0.05995770811196454,"581":-0.011784608503135287,"582":-0.049358714889175606,"583":0.008579508362304616,"584":0.013524125941093885,"585":0.04548327236875479,"586":0.06621527307292292,"587":-0.0019146153120917157,"588":-0.05094280889313122,"589":-0.007752063549555006,"590":-0.03324762160985171,"591":-0.041064890960016316,"592":0.03979057172955218,"593":0.02279143741077629,"594":-0.006335106582752175,"595":-0.03375099252423589,"596":0.07078810581202506,"597":-0.017527019726218337,"598":-0.0029982048389520025,"599":0.028183778273253118,"600":0.062339876040699176,"601":-0.026522247259369483,"602":-0.06518469079825898,"603":0.03353854464859953,"604":0.05730553985130634,"605":-0.0074994554885217096,"606":-0.06064671400119272,"607":-0.021374217653829266,"608":-0.0778255224895419,"609":-0.024663103638704203,"610":0.017347170040823864,"611":-0.015473068847953268,"612":0.031008772266145585,"613":-0.024743149186464915,"614":-0.02034491801800171,"615":-0.0575174008068459,"616":-0.012242617179305791,"617":-0.023655483023927653,"618":0.009393748761942567,"619":0.01826840834615464,"620":0.03135047249634416,"621":0.0022447588894864427,"622":0.060329996255517264,"623":-0.0028836910439733513,"624":-0.004493890278454369,"625":-0.02231012953613356,"626":-0.023629339398981042,"627":0.042034641233173645,"628":-0.008755198232293857,"629":-0.04401360308813419,"630":-0.003449939168709671,"631":-0.018662009298103133,"632":-0.007525397203280006,"633":0.02582139222858076,"634":-0.058587300275087066,"635":0.04985761733564715,"636":-0.00857752610034021,"637":-0.009442166612193038,"638":0.021816353191008345,"639":-0.032280057278249105,"640":0.0021821227640336166,"641":0.0749664621725087,"642":-0.03405853697609821,"643":0.07305661599374283,"644":0.08627680740697005,"645":-0.020782606276610695,"646":0.026801902342290185,"647":-0.05191479461512583,"648":-0.008303167162950275,"649":0.004756004548468351,"650":-0.01828731123221431,"651":0.020525623699372178,"652":0.08275429822904287,"653":-0.027352451806302035,"654":0.02553919975050079,"655":0.020423339551789862,"656":-0.006026318026195168,"657":-0.023306285327862566,"658":-0.007900720486059564,"659":0.012087431757309204,"660":-0.014587255179139369,"661":0.017613838400589703,"662":-0.007322227921253294,"663":0.031071175166106153,"664":-0.02711212986750925,"665":-0.015336753306853192,"666":0.0508375954981091,"667":0.00230795996072044,"668":-0.04457371844920331,"669":-0.03806124619693852,"670":0.008391992846517527,"671":0.020606209668791245,"672":0.004174310552095637,"673":0.052320055289834355,"674":-0.033938117619464886,"675":-0.06723672735154772,"676":0.009599124255297475,"677":-0.00022933865373791294,"678":-0.05226760586158422,"679":0.05964828153250068,"680":0.0017093405758577302,"681":-0.022033176285664084,"682":-0.028049640549669484,"683":0.000619481163577096,"684":-0.025464468789378945,"685":0.04330367007610198,"686":-0.046246002542828714,"687":-0.008115728243359372,"688":-0.08550784917584019,"689":0.01485490041310296,"690":0.0018558438406896785,"691":-0.023480072631071543,"692":-0.027994632704899918,"693":-0.028336208638371864,"694":-0.003623218469734077,"695":0.002282701136676405,"696":-0.05328921378887517,"697":-0.03898588870958657,"698":0.009007136878354418,"699":0.046705784926274405,"700":0.042706888811748694,"701":-0.062352754522513175,"702":-0.001741446797440981,"703":-0.05509413892001503,"704":-0.014545747165047364,"705":-0.014802291006878075,"706":-0.03453934096094564,"707":0.004433717418778389,"708":0.049847670610533704,"709":0.024503414227858313,"710":0.04024692842905204,"711":0.034040946204167505,"712":0.011026587038841391,"713":-0.009158108571886982,"714":-0.013153173320835158,"715":-0.03230851702816531,"716":-0.04591648040009291,"717":0.03614576982053143,"718":0.0038520114382538453,"719":0.028775368681423538,"720":-0.029844130904266096,"721":-0.03485682393956016,"722":-0.009456651375350837,"723":-0.02522889776893318,"724":-0.04207707226572118,"725":0.035759553754070486,"726":-0.0027940324618720654,"727":-0.05895184532571574,"728":0.07294645339712014,"729":-0.029878741571147716,"730":-0.0041363750122256305,"731":0.009044315967602764,"732":0.0017399164321887594,"733":0.025230158680964416,"734":-0.04055915299778404,"735":0.06492763439873221,"736":0.00143799689377362,"737":-0.004824989113443051,"738":0.00725939277087681,"739":0.05572052732489598,"740":-0.0012733162817207498,"741":0.07573962690801855,"742":0.019172307688246355,"743":0.0023734531600403358,"744":-0.055195357308728134,"745":-0.013187932070231894,"746":-0.06837589620266488,"747":0.014309313224315182,"748":-0.015988181014183374,"749":-0.02005063713775432,"750":0.004359457278166305,"751":-0.002371465171528171,"752":-0.041807083720554465,"753":-0.016911391660531024,"754":-0.029985739905161898,"755":0.008262021747362378,"756":0.015577461982022691,"757":0.054061524446497644,"758":0.0185606887700453,"759":0.0522913407559399,"760":-0.020219428742500767,"761":0.026454574641928297,"762":0.0023007877167432198,"763":-0.0028883639196699363,"764":0.016933687073397697,"765":0.03300275106366318,"766":-0.025148357975372456,"767":-0.0010160557311990977,"768":0.015122561678539181,"769":-0.00916797702934832,"770":-0.02491651551633619,"771":-0.029526302438155128,"772":-0.019555691925905033,"773":0.031075909676367846,"774":0.041764414437647064,"775":-0.05777719483720087,"776":0.040038710839931956,"777":-0.002465697129238402,"778":-0.01203025531710891,"779":-0.012004815475242703,"780":-0.0003675128006982342,"781":-0.0035406180404050007,"782":0.03911601051860836,"783":0.0011701160100616038,"784":0.031942164263167185,"785":-0.013497884134677722,"786":-0.03926971168478225,"787":0.017974337365496893,"788":-0.04376116722146873,"789":-0.00846986302271344,"790":0.04793397929746298,"791":-0.014977323831202741,"792":0.02038239535736786,"793":0.03684765681832179,"794":-0.03530001658368647,"795":0.016879396860695717,"796":0.005469701240494392,"797":-0.0033172967550065325,"798":0.0007945028343074209,"799":0.0070821651355522635,"800":-0.002947026268047472,"801":0.0031799454102345707,"802":0.019723322842414747,"803":-0.014471702609922922,"804":0.04464259137824977,"805":0.03049598445785514,"806":-0.014811792407714307,"807":0.04487564720616521,"808":-0.040331716441086324,"809":0.02206487553716846,"810":0.01720035089306857,"811":-0.06397007850370537,"812":0.01992544438567092,"813":-0.0005413242405721331,"814":-0.026209675270429555,"815":0.021467586990158088,"816":0.006495562944431292,"817":0.07664651150010736,"818":0.04504834549006642,"819":-0.015010479155535595,"820":0.07121622870786742,"821":0.038880165059273795,"822":0.018359454564595912,"823":-0.005632231629339936,"824":-0.007231291961870949,"825":0.031272985395485245,"826":0.030925735933110328,"827":0.05020192968550298,"828":-0.010455461020042571,"829":0.055214661406626765,"830":0.058339438491053934,"831":0.01196010074014383,"832":0.05583134796150644,"833":0.08861417409784728,"834":-0.0022115546646044163,"835":0.021709738853816034,"836":0.009104131018747847,"837":-0.008753163548099411,"838":0.015885251627801775,"839":0.015178467361212597,"840":-0.019842973312083633,"841":0.009141983103290199,"842":0.01236304577801744,"843":-0.05181588120598596,"844":-0.019575716391841594,"845":0.03508078437472799,"846":0.024410274250937197,"847":0.053798161437205796,"848":-0.008743783454411954,"849":-0.05786432581129714,"850":-0.020262498440235224,"851":-0.008017472245780833,"852":-0.04017148379326388,"853":0.021295941615880973,"854":0.017726616304850857,"855":-0.05155175318141013,"856":-0.004132010203156957,"857":0.02099246467701744,"858":-0.040702595884881884,"859":0.0060898250063016746,"860":0.03609006304657804,"861":0.01684550881463026,"862":0.03787174000625538,"863":-0.044923041762041524,"864":0.006401501923303682,"865":0.006853098452314899,"866":0.019875322733555613,"867":-0.06600852392144936,"868":-0.03249301606854725,"869":-0.0009884852157104778,"870":0.045519916334184875,"871":-0.05275542934250445,"872":0.01698961754263404,"873":-0.02777645054654255,"874":0.0031614684094107524,"875":0.02977185243416195,"876":0.02159260390874568,"877":-0.03148007257332046,"878":-0.046576063766459425,"879":-0.021189733922608,"880":-0.017835136477437737,"881":-0.0188493583485933,"882":0.018893821263544344,"883":0.02714153135201587,"884":-0.008601325566608899,"885":-0.012074470784671632,"886":-0.0077169408587450875,"887":-0.04106299023767551,"888":-0.005582168498022529,"889":-0.030068249763866562,"890":0.011080412591527464,"891":0.012194216015555313,"892":-0.021717310634531792,"893":-0.021339020788682456,"894":0.02159320755783914,"895":-0.02532849001076824,"896":0.034608051664186214,"897":0.021793072079680963,"898":-0.03441958752010602,"899":-0.004905022581044833,"900":0.03451644757117541,"901":0.03342355968322717,"902":-0.011184496005629674,"903":-0.037324601729136646,"904":-0.018848100790873828,"905":-0.0098042942905806,"906":-0.013601956528918187,"907":-0.015666266439840943,"908":-0.022046726198790376,"909":0.025071932493436404,"910":0.015131323344322215,"911":0.07584036743920705,"912":-0.05703243495272582,"913":-0.0852633624575921,"914":-0.003507882168479407,"915":0.05274889419898881,"916":-0.027717702886893965,"917":-0.03534679208542462,"918":-0.01575663562466694,"919":0.04219997795951475,"920":0.038926247834401455,"921":0.0077570268663204305,"922":-0.01576707820165613,"923":-0.026519247486104167,"924":-0.01444767376263164,"925":-0.039204023647147326,"926":0.017630291426843813,"927":0.003120505415223804,"928":0.02822232689089076,"929":0.041009535217122896,"930":-0.01935920137296355,"931":-0.010141291656814716,"932":-0.0192444763637915,"933":-0.043143227147152526,"934":-0.029510571909046997,"935":0.015359431805499467,"936":-0.03775877297096702,"937":-0.0011541924998888765,"938":-0.012673430771951329,"939":0.037910463014522146,"940":0.024989113930987215,"941":-0.035999355730747785,"942":0.023111570063270578,"943":-0.015007752048911928,"944":0.0016955402426547998,"945":0.04363295297705234,"946":0.028525224326415275,"947":-0.016614194501679655,"948":0.012501686182125252,"949":-0.004860488024415105,"950":0.027813619519602966,"951":-0.04697091069378363,"952":0.032725686821675065,"953":0.0008328982296117643,"954":0.0045437123689982695,"955":-0.009050624427576974,"956":0.007233431870501104,"957":-0.06522726993255591,"958":0.05869217838347707,"959":0.005601135924575181,"960":0.014866932719587462,"961":0.03633149103225185,"962":-0.04615209299645113,"963":0.006895932038858766,"964":0.04821871160856957,"965":-0.024644429828551234,"966":0.027557456502953104,"967":-0.022729851566730228,"968":0.0186999126208784,"969":-0.0192180813181668,"970":0.062182959150816564,"971":-0.021690348157163586,"972":-0.05856747058901636,"973":0.026055256067011177,"974":0.02821216009683566,"975":-0.002430285290730933,"976":0.009507032805479192,"977":-0.011979326322812036,"978":0.011762775753740977,"979":0.024003989446731905,"980":-0.031412816587382826,"981":-0.07613026043308073,"982":-0.014712543187816373,"983":-0.006082593583433719,"984":-0.04691708281045215,"985":0.013648227408890807,"986":0.00772009209766085,"987":0.03866278180763314,"988":0.012765592771612233,"989":0.019730787094599002,"990":-0.019465543156101245,"991":-0.014783823706073423,"992":0.06351276284506509,"993":0.029884755568805228,"994":-0.051143573952960826,"995":-0.006746990795856994,"996":0.02122073563270417,"997":0.0149594910507207,"998":-0.01952502118996453,"999":0.007288971669837212,"1000":0.0013041690989795917,"1001":-0.017575983575076955,"1002":-0.003401808598696019,"1003":0.013332607772742578,"1004":0.02068791807782684,"1005":0.02617719654080896,"1006":-0.008631116800134047,"1007":-0.01993068206847,"1008":0.03347402686027691,"1009":-0.017264219937500533,"1010":0.009502288084019938,"1011":-0.06872923499383639,"1012":-0.00166284011483261,"1013":-0.009325001844575595}},{"sx":1,"sy":1,"depth":1014,"w":{"0":0.06637633531672489,"1":0.027593713560188755,"2":-0.02816084056420776,"3":0.002120926835046553,"4":-0.010152989991567005,"5":0.006624898659718857,"6":-0.05245753178677762,"7":-0.006265734416504835,"8":0.04619682161471936,"9":0.025105591064441664,"10":-0.045299648552492085,"11":0.028188770596529716,"12":-0.026922231818938894,"13":0.07610536836490354,"14":-0.023636772854227717,"15":-0.03268551163562449,"16":-0.04056223827898783,"17":-0.0036007299648875995,"18":0.009234665858155796,"19":-0.006470886225935095,"20":0.006536793694239011,"21":0.007446141829019362,"22":0.02654652118782804,"23":-0.005623216707786645,"24":0.026043151400411992,"25":0.03167649565291973,"26":-0.036385021060986386,"27":0.05375416993951656,"28":0.013152970363366203,"29":-0.011533929408186509,"30":-0.0070276229805438,"31":-0.020922788746527747,"32":-0.026419034565195072,"33":0.023506448633730852,"34":0.03141489058684817,"35":0.014683968228688617,"36":-0.0018200853081730278,"37":-0.05169696940313232,"38":-0.068390510911756,"39":0.022437146259077775,"40":-0.005939450084321029,"41":0.03946569171783974,"42":0.00944394738225104,"43":-0.04409313530546186,"44":0.0041434533265467645,"45":0.04215596283162611,"46":-0.056791456803904315,"47":0.02527112795898996,"48":0.03401541695099002,"49":0.012301964310767306,"50":-0.03270758998516825,"51":-0.0320752723141841,"52":-0.08981743942511314,"53":0.03239869017614839,"54":-0.0013642278383999957,"55":-0.04103417534273566,"56":-0.027215789360106428,"57":-0.0026789742274586047,"58":0.013302945049697845,"59":-0.005265181354776854,"60":-0.00723542569971571,"61":-0.04629361659018689,"62":0.02913651439877587,"63":0.0038277109958457668,"64":0.023530366517690186,"65":-0.02295508335678453,"66":-0.02877368406559827,"67":-0.0464428562670571,"68":-0.025756631155660598,"69":-0.02373109424166624,"70":0.007767893034682444,"71":0.015247721936796415,"72":-0.029448472254316804,"73":-0.008483009152266064,"74":0.04522907745968891,"75":-0.015681641606200204,"76":0.01503995835181046,"77":0.01577450204929299,"78":-0.0182711250393936,"79":0.033468865768740697,"80":-0.018491356598813142,"81":-0.0035812469975196456,"82":0.0028800360206797763,"83":-0.04446395750245913,"84":-0.052461532836490056,"85":0.034612661079587145,"86":0.027272066682392578,"87":0.014758818427451274,"88":0.0016918884742093238,"89":-0.018251991029373256,"90":-0.040374463764113154,"91":-0.03264292278731659,"92":0.026262163157507745,"93":-0.027802449617593213,"94":0.05962664222954665,"95":-0.06069873710710274,"96":-0.0328205868708195,"97":0.0035318539268299892,"98":0.040412179742903516,"99":-0.08134092082728535,"100":0.005903802496527838,"101":0.02226685243299594,"102":-0.028325046746867318,"103":-0.00817609181591054,"104":-0.005307666158115005,"105":0.058692690186034575,"106":0.0002384594152838482,"107":-0.028549113866881567,"108":0.022598779119580074,"109":0.06903139305920164,"110":-0.05580721224650514,"111":0.031855472520249895,"112":-0.007114804948048527,"113":-0.031168702200655693,"114":0.05083509534255498,"115":-0.009767749689017753,"116":-0.03543611163861314,"117":-0.021049459626017036,"118":0.027527327084080944,"119":-0.01595830162976322,"120":0.009136770520438318,"121":0.013574960999727569,"122":-0.021761851140613766,"123":-0.020316403485353938,"124":0.005698943957645079,"125":0.030289250650507554,"126":-0.00686857093768411,"127":-0.027656314842451023,"128":0.0656516964797126,"129":-0.04438289257022098,"130":-0.030151747317578016,"131":-0.0040130463221842005,"132":-0.0035839881934776247,"133":-0.023569190025564464,"134":0.02181182340711972,"135":-0.02383635781567155,"136":0.002457126052593093,"137":-0.023374632647495265,"138":-0.04800468452049008,"139":-0.013149033907982806,"140":-0.021313353715027142,"141":-0.04828099867595524,"142":-0.010230496182559381,"143":0.019263653785483274,"144":-0.013275156067507192,"145":-0.005978395573588947,"146":-0.002077360329533404,"147":0.032676003975266876,"148":0.057362299595525565,"149":0.026526294253820994,"150":-0.005576394696727253,"151":-0.06806749253018106,"152":-0.0069118511674603495,"153":-0.04562983325803215,"154":0.026123462661247897,"155":-0.07160735940287581,"156":-0.014289639074530227,"157":0.02002409228402453,"158":0.04968846132556016,"159":0.01116887565831324,"160":0.0006011683844427834,"161":0.0007554096389741396,"162":-0.005884145398447238,"163":0.04591288022068341,"164":-0.005447480693882743,"165":0.04402573261123669,"166":0.0303356438722239,"167":0.02639525644166613,"168":0.020327502715225862,"169":-0.0038778561586428734,"170":0.0027815427973080747,"171":0.01915804105452411,"172":-0.013807684864032364,"173":0.024824406704413268,"174":-0.010945524070063214,"175":-0.009256836140002198,"176":0.02416458675041732,"177":-0.04507544323078834,"178":-0.05179470345027039,"179":-0.0025142244381175702,"180":-0.006425873166472277,"181":-0.012344371548655728,"182":0.014417959154375635,"183":0.029690476195675535,"184":0.0034557391455954907,"185":0.04565191568420834,"186":-0.0046392108102480895,"187":0.005227328570235414,"188":0.028784439240632252,"189":-0.0015251670345249582,"190":-0.025743703574194438,"191":0.011820778021390877,"192":0.03824915655100632,"193":0.04362903294613311,"194":0.028600372837291235,"195":-0.05954131748953526,"196":0.044284626065481836,"197":0.00967106035404598,"198":-0.025716907326992444,"199":0.020334344529315294,"200":0.03713581107955343,"201":-0.047982244040869225,"202":0.002828966547020048,"203":0.025642578859965348,"204":0.0015367675212016804,"205":-0.0011654865071013788,"206":0.010993173363349562,"207":0.005203661984396173,"208":-0.030786327893062918,"209":-0.00874848103571646,"210":-0.020670402295271832,"211":0.004936398410403447,"212":0.0289545931870057,"213":-0.013509249586392805,"214":0.05264880101708662,"215":0.008521800204429093,"216":0.0462949793509138,"217":-0.02615979179182057,"218":0.004581991263939407,"219":0.02211153079261057,"220":-0.04982075888568997,"221":-0.014641139645054984,"222":0.012751616756534905,"223":-0.024780475538335005,"224":-0.04265863059315024,"225":-0.006774633766883335,"226":-0.010019158734367437,"227":-0.0266612430647476,"228":0.027329652817290773,"229":-0.00008069774284267084,"230":0.06373746176373193,"231":0.04472033720883103,"232":0.014092321090421933,"233":0.054441972365970794,"234":0.01220034160415597,"235":-0.0017443438772536313,"236":-0.00569530750273951,"237":0.021283033861340263,"238":0.03207343884262304,"239":-0.024385903823141618,"240":-0.04103814085987767,"241":0.06951600501948607,"242":-0.021991438726593454,"243":0.04101412378694713,"244":-0.047136482994062215,"245":-0.030063941244220946,"246":0.00307422341937753,"247":0.03631431704510318,"248":0.006143012492715481,"249":0.002299576531163401,"250":-0.0068667577842182696,"251":0.0129118982152214,"252":-0.021716032148441367,"253":0.015132560091864632,"254":-0.03035438447026717,"255":-0.00025750914084136977,"256":-0.0272439563940971,"257":0.0008613916521161229,"258":-0.06211067232702837,"259":-0.02477998211328268,"260":-0.01300940788507053,"261":0.01353732531793762,"262":-0.007071724822050525,"263":-0.03430089310338786,"264":0.018140757333398316,"265":-0.028656990607379137,"266":0.01231151756694729,"267":-0.04496858457362899,"268":-0.025006677402437356,"269":-0.019392820347873294,"270":0.0011998654376477768,"271":-0.02093711636355347,"272":-0.009956641572723758,"273":0.021772689417610805,"274":-0.01904576003098507,"275":0.00011517642659227715,"276":-0.023001705372964518,"277":-0.003806096075951152,"278":0.013554164864506795,"279":0.029741538789615413,"280":0.009355930456818134,"281":0.017327830939471725,"282":0.04660782150490471,"283":0.028908878153510995,"284":-0.0036126889643446377,"285":-0.045114985178887554,"286":-0.006504952879530416,"287":0.01424479600377501,"288":-0.0016540755272382568,"289":0.0030761440426687633,"290":-0.05035076204282547,"291":0.035101176398117766,"292":-0.024497375025203317,"293":-0.003676654534668862,"294":0.07006160492359405,"295":0.0019635394998412325,"296":-0.02075471677033133,"297":-0.040723930611105234,"298":-0.035761665422277635,"299":-0.042327160687314826,"300":0.027854774932980567,"301":-0.01396038310383302,"302":0.007815772341064888,"303":0.004878728681138796,"304":0.03630365385241186,"305":0.03118193508792611,"306":0.011462421356967425,"307":0.03160154040151869,"308":-0.003282090631183717,"309":0.017852860764195542,"310":0.026402602616658617,"311":0.018168817092346152,"312":-0.03273511980497332,"313":0.021868157465109086,"314":-0.03518878222568362,"315":0.02390540341023245,"316":-0.051711597842236674,"317":-0.013768463358437616,"318":-0.006022080441662779,"319":0.04067874851825985,"320":0.048286930476672464,"321":0.02368832710625108,"322":0.001481288717680512,"323":-0.015251928802792032,"324":-0.003895763574931655,"325":0.023545562107883073,"326":0.04004586539445415,"327":-0.0008575983634136791,"328":-0.003327824713933451,"329":0.0056336876749832916,"330":0.02304282950727338,"331":-0.028954839429704823,"332":-0.02296460232643939,"333":-0.023840667486147844,"334":-0.000368011434426356,"335":0.020255101087717973,"336":0.025473633211377477,"337":-0.04338523397127776,"338":-0.04891657878928782,"339":-0.01875641525533923,"340":-0.03739142060344886,"341":-0.05322719933000815,"342":0.0076055581510336735,"343":-0.04428724533649061,"344":-0.024795564266388303,"345":0.01664537260451905,"346":-0.023655881792088797,"347":-0.05142507087930751,"348":-0.04673127712466936,"349":0.017982386610429894,"350":0.013817670683077403,"351":0.014790414468582296,"352":-0.01674029129177436,"353":-0.028740194756641236,"354":0.002722042376593495,"355":0.012009414858090378,"356":-0.005272271490566793,"357":-0.01392698195182536,"358":0.049924076018949146,"359":-0.0025755587332710046,"360":0.004766722896141092,"361":0.039756260040515745,"362":-0.0038899071909871802,"363":0.021973227454078734,"364":0.07107176660779804,"365":0.004613088623154134,"366":-0.018240014641642988,"367":0.021772063646729765,"368":-0.007878603598934903,"369":0.02112815236794241,"370":-0.03988274017738917,"371":-0.008912218258490706,"372":0.010171036383501416,"373":-0.004088453245474275,"374":0.029280723890322706,"375":0.0007690957644643614,"376":-0.029480148185112486,"377":-0.053652157906173024,"378":-0.01886901571687012,"379":0.05984715385919279,"380":0.01390459436053858,"381":-0.009559151085214069,"382":-0.015420800710795124,"383":0.06819162568333323,"384":0.03585444306837066,"385":-0.08369237789275046,"386":-0.048344190091408,"387":-0.00799172795273505,"388":-0.008116307850776662,"389":-0.007544056586267985,"390":0.011729064163573185,"391":0.03612206915794143,"392":0.03088073491878537,"393":-0.03596941432952348,"394":-0.030439722645015384,"395":0.01422253493735513,"396":-0.0621318411938078,"397":0.006621321602525973,"398":0.010066067381362004,"399":0.005748678909083089,"400":0.0017179408702508818,"401":-0.03223051710010415,"402":-0.00022439295287217403,"403":-0.016334079766004407,"404":-0.0015228655837303557,"405":0.015335634172544585,"406":-0.014443181061460487,"407":0.04477487975256073,"408":-0.030112530602908808,"409":-0.024479917564936515,"410":-0.03577631426157444,"411":0.01216215633438974,"412":0.02444696646936521,"413":-0.020187638333950965,"414":0.03131193065077321,"415":-0.05738738406216907,"416":-0.03588794050089217,"417":-0.013166050104500284,"418":-0.009712424413449269,"419":-0.02031888452604652,"420":-0.04502376094327107,"421":0.008715129323402937,"422":0.01460886438433032,"423":0.036460718249388055,"424":0.07722394049180391,"425":0.012080237583368281,"426":-0.0014411444304183048,"427":0.021230295833966822,"428":0.014043345715523205,"429":0.015367911682065048,"430":0.03044436692139467,"431":0.009977353568223726,"432":-0.017754265906341903,"433":-0.00980296797336492,"434":-0.004969409137566982,"435":-0.029759568772502413,"436":-0.021702960071445433,"437":-0.0235588226581836,"438":-0.042944044197758456,"439":0.007311414183944063,"440":0.02744111166857384,"441":-0.00978090163506411,"442":0.003377526666132456,"443":0.015621230864183738,"444":-0.0100501885949548,"445":0.04599861679613612,"446":0.041696266978852904,"447":-0.013582263085068722,"448":-0.020596906390582002,"449":-0.029875787409197975,"450":0.0037106199879578744,"451":-0.014945479092172328,"452":-0.03245490310353613,"453":-0.01944372066487449,"454":-0.013468294271507602,"455":0.000735046372903509,"456":-0.04096047431231995,"457":-0.03503438812919839,"458":-0.003751050845234714,"459":0.025858071606913013,"460":-0.011670861615907377,"461":-0.00876674316384858,"462":-0.03317027647946467,"463":-0.036979443239836034,"464":-0.05248272031395978,"465":0.04724350925234896,"466":-0.071812089383213,"467":-0.04506012492708295,"468":-0.0133409867858737,"469":0.03765490417981538,"470":0.03480074928526422,"471":0.011975333497021753,"472":0.025027330682227827,"473":0.03124226026456934,"474":0.009396340270460601,"475":-0.01678352685679437,"476":-0.033355525447155074,"477":-0.04417081791829019,"478":-0.010640572862829214,"479":-0.0015108447127427677,"480":-0.019704561658426385,"481":0.018925808428511937,"482":-0.03138198900058069,"483":0.004715223862225259,"484":-0.011946438377864587,"485":-0.012583094213140673,"486":0.009562488234563763,"487":0.022782990933799062,"488":-0.039165768598539666,"489":-0.020981547672878992,"490":-0.02923597800613638,"491":-0.04751344450719135,"492":-0.007415510253010898,"493":0.028237417236783215,"494":-0.05140433325631667,"495":0.01753039038551152,"496":-0.012305372559963735,"497":0.003812523617818669,"498":0.025835548127646508,"499":-0.08162211218843954,"500":0.005719515901364633,"501":0.013933307585286603,"502":-0.033766787800400475,"503":-0.025346309597286277,"504":-0.06047404001546011,"505":-0.012602152860414516,"506":-0.023963347831001614,"507":-0.01678909440295551,"508":-0.02645241229422251,"509":0.015510275775663789,"510":0.018304769301828804,"511":0.02814564187919306,"512":0.019103947411676685,"513":0.03656972971658697,"514":-0.008255123629043388,"515":0.0022114357752438044,"516":0.02570862638488762,"517":-0.0005584554319972189,"518":-0.017857473257233362,"519":0.04424405970720074,"520":0.02905419045050798,"521":0.027699670909271282,"522":-0.028212503488861333,"523":0.038717175113400844,"524":-0.006941190091690992,"525":-0.037355682405816805,"526":-0.07451491519389612,"527":0.032031996298910466,"528":0.020281855552734845,"529":-0.03937390443756762,"530":0.03567523667644593,"531":0.04265196415051767,"532":0.027551092761029843,"533":0.020589225848889555,"534":0.019868508146476616,"535":0.022997082628256376,"536":-0.02484557553008112,"537":0.038317028048106105,"538":0.005512036666040861,"539":0.049247770393426045,"540":-0.035868519226178903,"541":-0.007547109351483544,"542":-0.009090862093938949,"543":-0.012216041727502548,"544":0.0033992810490803206,"545":0.007737814906307333,"546":-0.01423292802025384,"547":0.0028203102711666247,"548":-0.0077916537208045705,"549":0.0030954099378072085,"550":0.015936350601212183,"551":0.0023457575352243618,"552":0.0077098562396596924,"553":0.014250675472005783,"554":0.031212608498759488,"555":0.08431898664729967,"556":0.0261141684329213,"557":-0.02344919985246767,"558":0.01964451267790229,"559":0.021439538492066673,"560":0.02102096127244444,"561":-0.02752856493292306,"562":0.052145254569042516,"563":0.00515186012386563,"564":0.003003674349585286,"565":-0.03660950204642639,"566":-0.013285529675066134,"567":-0.05497192403585593,"568":0.06869538589419459,"569":-0.009963561985523749,"570":-0.006020911831610926,"571":-0.007641180560564174,"572":-0.04294432894060436,"573":0.04904728685583875,"574":-0.005668133899700967,"575":-0.03668330175305538,"576":0.07299567271918764,"577":0.040271242359525276,"578":-0.014622296031452138,"579":-0.018939133290985947,"580":-0.016877911722693602,"581":-0.025054563658855715,"582":0.02787544132535321,"583":-0.0024094034158306456,"584":0.04746609922698281,"585":0.00530130502625375,"586":0.0479169725366991,"587":0.002011172693542766,"588":-0.002081818697274487,"589":0.022082169521047662,"590":0.004666160051658842,"591":-0.01670344699458708,"592":0.008601454846990458,"593":0.006985723810161955,"594":0.0375439652926015,"595":-0.030110633140503707,"596":-0.01885366054042184,"597":0.03061888211268643,"598":-0.006913574328364164,"599":-0.01663841892888218,"600":0.019708143139265485,"601":-0.018242008547622732,"602":-0.044385919492322866,"603":-0.025683689781578905,"604":-0.006602055611369738,"605":0.0007782120605968984,"606":-0.07062182861500903,"607":-0.04518403925416421,"608":-0.006695366584793617,"609":-0.024436309171046652,"610":-0.017817258064669654,"611":-0.049147776416698624,"612":0.029667839090623267,"613":0.06886419630534643,"614":0.03802913490952533,"615":-0.03134806494380241,"616":-0.005382908500415132,"617":0.0023118128518527857,"618":0.043956749059621256,"619":0.008024981970720246,"620":-0.039774428837911546,"621":0.0013341413711230948,"622":-0.04520533122506536,"623":0.014724687344734153,"624":-0.014678374854894977,"625":0.04627264275534898,"626":0.024648798715987928,"627":0.02447940558229725,"628":0.04314379122135079,"629":0.014722027736069664,"630":-0.00697971257113067,"631":0.02593427528320519,"632":0.04039609881039777,"633":0.015183938110823653,"634":-0.028070866501785748,"635":0.012523219913635624,"636":0.0750118890421925,"637":-0.03476243911961141,"638":0.05511606753176151,"639":-0.07861700900150331,"640":-0.013598360276997507,"641":0.003937751738640788,"642":-0.06133794039424138,"643":0.023356201375897362,"644":-0.01223770013905572,"645":0.025901217172739778,"646":0.044916789242483886,"647":0.0021121123713025475,"648":-0.04070247377416769,"649":-0.02242018820459925,"650":0.0044081264812733485,"651":0.0006939033977228426,"652":-0.04817211894433666,"653":0.008950080993439436,"654":-0.014623714572429364,"655":0.06508311899828689,"656":0.0500600476336553,"657":-0.02756078037521037,"658":0.0019635154724372437,"659":0.04925178816394372,"660":0.03707590894592201,"661":0.03693237254082326,"662":0.02483432284460442,"663":0.01915350711921904,"664":-0.005273434183628962,"665":-0.019218030206258025,"666":-0.0248721580894093,"667":0.007640288198755186,"668":0.04306415815751422,"669":-0.09557057320721861,"670":0.049823613484671084,"671":0.015132826761001037,"672":0.0537396087136602,"673":0.036449019216596594,"674":-0.04045083406077374,"675":0.010892717660766533,"676":0.006862711901122834,"677":0.057854568324828215,"678":-0.029945890577810965,"679":-0.029987266467547475,"680":0.01113539202853695,"681":0.00025127792272854396,"682":0.027079216014207368,"683":0.01677324273050186,"684":-0.027409245553520804,"685":0.06056761506759744,"686":0.023150118338570183,"687":0.02789453932345242,"688":0.04696569845585023,"689":0.07165296302496811,"690":0.004646126676031413,"691":0.004919838152963756,"692":-0.04785126433243143,"693":0.023381028364792944,"694":-0.05850647627291802,"695":-0.0031317684431898364,"696":0.006496182727245058,"697":-0.009327778174875045,"698":0.01683567079945011,"699":-0.013623343752903666,"700":-0.032539789258773065,"701":-0.028988297559882876,"702":0.03751363939586266,"703":-0.016812290281224464,"704":-0.0018936188212753235,"705":0.0013610640551816515,"706":-0.06474057335786397,"707":0.003960828322242065,"708":-0.021596591724953054,"709":0.049308906618583885,"710":-0.0157505802085424,"711":0.04869700677312244,"712":0.04413499292793941,"713":0.031758997431286434,"714":-0.012285087999815324,"715":0.0024828416928957767,"716":0.006562399581826743,"717":0.008297272119574331,"718":0.03331713892201485,"719":0.0019914394385965525,"720":0.013502187403782126,"721":-0.0319281444401533,"722":-0.014395238462135787,"723":0.005899678839167856,"724":-0.05417901850273926,"725":-0.06472527112977886,"726":-0.0119733185870218,"727":0.024198693518147466,"728":-0.0041057393881551735,"729":0.07883148237801489,"730":0.02994861871731264,"731":-0.031041624281225304,"732":0.01463437481982458,"733":0.0553260516635815,"734":-0.006245525024408755,"735":-0.0025609733792739866,"736":-0.023359318682750766,"737":-0.08670864257645601,"738":-0.034662772049591124,"739":0.038498633628190476,"740":-0.01927932999899747,"741":0.028180765256390766,"742":0.02691959605375502,"743":0.042937210047189034,"744":-0.017714460526552914,"745":0.03627501586851381,"746":0.07977445037756706,"747":-0.0681628415580147,"748":0.020067826195093074,"749":0.007585708592272071,"750":-0.03695731092084723,"751":-0.025219306229080616,"752":-0.011040768212212136,"753":0.04207988601720396,"754":0.05760688777971589,"755":0.021278688701526702,"756":-0.021940493700493696,"757":0.056549892614346356,"758":0.01693716813757133,"759":-0.01742441717394391,"760":0.04398489111196004,"761":-0.013087871427471068,"762":-0.020506953701193483,"763":-0.05612169705869326,"764":-0.03993070652394508,"765":0.00361180766641792,"766":0.0031037733617394364,"767":0.03619547838864072,"768":0.03274144167156927,"769":-0.0024297319354194217,"770":0.007648933632604914,"771":0.06281326169690035,"772":0.029465503652089678,"773":-0.0297847096670872,"774":-0.018598327778983268,"775":0.08719885596361668,"776":0.038590201391417445,"777":-0.019466152091415292,"778":0.018337425477517082,"779":0.040814276229905695,"780":0.050470981464725305,"781":0.012692155397923571,"782":0.03549694364101496,"783":0.012875834939183909,"784":0.0021480248346063668,"785":-0.024789052451447757,"786":-0.018261483324246035,"787":0.0001423776321443074,"788":-0.027324876641699653,"789":0.04488272255927638,"790":-0.05418158943104997,"791":0.011516049030748966,"792":0.0066337978272438605,"793":-0.007114051904912454,"794":-0.006464519409537279,"795":-0.009634504456639055,"796":-0.013365302311016139,"797":-0.004956923670085667,"798":0.01939190118373819,"799":-0.06674957856691681,"800":0.011007243814165865,"801":0.015458858809470052,"802":0.00327347567027627,"803":0.02339047643263238,"804":-0.005870526752371675,"805":0.0004689345480364957,"806":0.022374367495827163,"807":0.012510907236453877,"808":-0.008180554122660279,"809":0.05496444752690335,"810":0.03714138332454584,"811":0.07354290516414175,"812":-0.01575412217942696,"813":0.03620631815852581,"814":0.011298548272025461,"815":0.005464555240859115,"816":0.002557198694477757,"817":0.005901208989852764,"818":-0.019310120483812657,"819":0.0233401300441578,"820":-0.042429651309618614,"821":-0.027433749431097706,"822":-0.00752206054114986,"823":0.0012873050180933507,"824":-0.01008488417832884,"825":0.058018264003558105,"826":0.03960964426774185,"827":0.04434009887192689,"828":-0.015183839267551654,"829":-0.0015276052227098582,"830":-0.020873227384641355,"831":-0.03308589602179965,"832":0.04488836585447815,"833":0.052386533433899665,"834":0.047105257682454646,"835":0.0072317091390023715,"836":0.04702504604565642,"837":0.03320617303097526,"838":-0.03545449305397642,"839":-0.06225359786274903,"840":-0.018218499868328845,"841":-0.03693716806643022,"842":-0.04001917346433129,"843":-0.016049855872905073,"844":0.04772515011322854,"845":-0.029650221098705614,"846":-0.022679040893479826,"847":-0.0680096111426894,"848":0.008686177816200378,"849":-0.08425653011327533,"850":-0.024615350906896195,"851":-0.02408156765960847,"852":-0.03155301558594047,"853":0.028604086289224274,"854":0.10107148505050531,"855":0.029968139047817404,"856":-0.020822695554033308,"857":-0.02976702885068167,"858":0.030991129963682636,"859":-0.029556121421518394,"860":0.01392433117924375,"861":0.0012366864421779905,"862":-0.00425746291155978,"863":0.04060328394851547,"864":-0.028809481528522383,"865":0.02655356942657262,"866":-0.03102060487288467,"867":0.026420936559548316,"868":-0.015716510271603812,"869":-0.009730735849652823,"870":0.024463629500480113,"871":0.05447369902438626,"872":-0.041029890129080634,"873":-0.024385977325046417,"874":-0.01762696711066667,"875":-0.007161316849442923,"876":0.005856818226719892,"877":-0.005892571428597469,"878":0.02100647754950055,"879":-0.04533422275171434,"880":0.020670227579084547,"881":-0.0015706963200915025,"882":0.007421197002650381,"883":0.035646014749931815,"884":-0.005884121103646966,"885":-0.047113910412112686,"886":-0.04890942347039803,"887":0.02803929571511441,"888":-0.001038412611798887,"889":0.00879633710586479,"890":0.02888171281827648,"891":0.04516969006151276,"892":0.025327120704206892,"893":-0.07644404441839873,"894":-0.03727851960266756,"895":0.07374997059739791,"896":-0.020448013943428316,"897":-0.02668580073487061,"898":-0.042135450740848304,"899":-0.008247015193890489,"900":-0.004244546659524497,"901":0.0041273342760822325,"902":-0.029965710233818967,"903":-0.049906014132925246,"904":0.003700270382132268,"905":-0.015578338973062291,"906":-0.02988029953018807,"907":0.03455954541138812,"908":0.053873703396766705,"909":0.004055487969573042,"910":0.02976209132758986,"911":-0.07070526587907436,"912":0.02755337787137128,"913":-0.012566942655134652,"914":0.006966443266508021,"915":-0.005118893513120012,"916":0.0184976100509947,"917":0.019691868066950134,"918":0.10733229884978829,"919":0.03526689747413997,"920":-0.04367591180810039,"921":0.026385494107735996,"922":-0.04182597412015425,"923":0.0201739698961487,"924":0.0352187020190675,"925":-0.024047819125430685,"926":-0.00997986953600047,"927":0.004088577111819632,"928":-0.01062475169636595,"929":0.06512730198778095,"930":0.03217845427762941,"931":-0.024777923741849266,"932":-0.0188906598297728,"933":0.02864534502596179,"934":-0.05148607689742907,"935":0.06593413846058727,"936":0.017279893517883713,"937":0.020746039062060226,"938":0.014014942142939949,"939":-0.05749744829170408,"940":-0.01980738657788409,"941":-0.03999869237193497,"942":0.0008338965137372194,"943":-0.005222629336412643,"944":0.030307392229760755,"945":0.008273573068451468,"946":0.0009450693511177205,"947":-0.026079086112781216,"948":0.001234619707954552,"949":-0.06044305490389571,"950":0.08051434170600466,"951":0.017284344992404166,"952":0.024223611112354732,"953":-0.028243466353209196,"954":0.025003965649268822,"955":-0.006417392242434489,"956":0.06794788845053426,"957":-0.008470008427815886,"958":0.046828598159986044,"959":-0.027791746263202778,"960":0.03375857262425934,"961":-0.021465461197252778,"962":0.0174571082797063,"963":-0.046312122502071354,"964":-0.06278454367183038,"965":-0.07396793771575982,"966":-0.02811445931117935,"967":-0.009569664923152612,"968":-0.02152092520927941,"969":0.036448831547703224,"970":-0.012247910035088393,"971":-0.02806740481017552,"972":0.038784649524043494,"973":0.014608197549617919,"974":0.05294041622157334,"975":0.05044021089157426,"976":0.08522563655311872,"977":0.04830910693198332,"978":0.03248895217871912,"979":0.03527551935618333,"980":-0.03493202506362557,"981":-0.008076163348788893,"982":0.02350802787786747,"983":-0.04193777088379789,"984":0.01969410019912913,"985":-0.0070076241174804295,"986":-0.008891928106737406,"987":-0.005073862639017546,"988":0.0006669800193245732,"989":-0.013311629905643538,"990":0.010033906657957828,"991":-0.058338645839348155,"992":-0.02107617718817228,"993":-0.040710310209451685,"994":-0.01959752264069338,"995":0.012444220253929428,"996":-0.024425639788935388,"997":0.02911904880882523,"998":0.027252247523204005,"999":0.07531884507371088,"1000":0.0017898196872933201,"1001":-0.023664988222266384,"1002":-0.021156460579314286,"1003":-0.006203151595260732,"1004":-0.013899116195587797,"1005":0.00009061805846203597,"1006":-0.01610648866916996,"1007":-0.027852510820938755,"1008":-0.009321100569586344,"1009":0.02529447263664824,"1010":-0.03277616891925076,"1011":0.020351067509018172,"1012":0.0023605978719351893,"1013":-0.08532474521727747}},{"sx":1,"sy":1,"depth":1014,"w":{"0":0.004912724042750206,"1":0.030335347414637247,"2":-0.0028812351757858583,"3":0.008302308377384151,"4":-0.016054840125708496,"5":-0.014202554130124105,"6":0.004776088371164399,"7":0.05888130797262119,"8":0.015499436673653043,"9":0.016293497804098653,"10":0.011663551846091124,"11":-0.07441991474258279,"12":-0.031365414315927265,"13":0.0231826102870458,"14":0.02936881012433107,"15":-0.005454036149775808,"16":0.018990033128412118,"17":-0.05911453132142741,"18":0.019484515405197227,"19":-0.013365309804983391,"20":-0.011018641425661627,"21":0.012281399263337956,"22":0.04408284880748046,"23":0.011546778405897453,"24":-0.0010355218086552495,"25":0.0725445244951802,"26":-0.05881220432785534,"27":0.05807867945974606,"28":-0.002188484608474262,"29":-0.04511118697977302,"30":0.026726035802329403,"31":-0.03470398623990836,"32":0.03323183472278262,"33":0.03334400923589991,"34":-0.03583782028724966,"35":-0.004227376874652059,"36":0.05483247662738476,"37":-0.03625090958392502,"38":-0.004490936880736727,"39":-0.012758818044074654,"40":0.003436505376528148,"41":-0.01618951401164055,"42":0.01576168218650945,"43":0.02024445646835438,"44":0.02234256110962826,"45":-0.012822181212558723,"46":-0.016414057602440333,"47":-0.025704622538907405,"48":-0.014016687429706756,"49":0.017709100165448015,"50":-0.03085511218654667,"51":0.024786900359711653,"52":0.016378862487871605,"53":0.035214995329165936,"54":-0.06443402342143313,"55":-0.004884082031709998,"56":0.008082647811959144,"57":-0.0019662393635218414,"58":-0.02156607121448652,"59":-0.0387574399045608,"60":0.013307416108561548,"61":0.026638450643481432,"62":0.021933034658536858,"63":0.027313875167765816,"64":0.0092701149875126,"65":-0.016826726312323254,"66":-0.004103261175550464,"67":-0.018874868426676402,"68":-0.011979240524568507,"69":-0.011496685959303896,"70":-0.001380479786250723,"71":0.011226980842772218,"72":-0.017281702859942,"73":0.016508436623842215,"74":0.009556732768593913,"75":-0.04575206757361988,"76":-0.03383868503904831,"77":-0.046821077033231004,"78":0.07715178380676076,"79":-0.0020011868041307584,"80":-0.0305623931701141,"81":0.01695403939728626,"82":0.01977307654297523,"83":0.001341344360702946,"84":0.065649235328244,"85":-0.020752488156585393,"86":-0.012555468940253764,"87":-0.022178997263268222,"88":0.02997903477586212,"89":0.05547247864687747,"90":-0.005162205512912621,"91":0.07420959529261854,"92":0.07136818853205686,"93":0.002630211470199661,"94":0.05029196222586599,"95":-0.00019843051148057595,"96":-0.023037216328056834,"97":0.0016196157602626781,"98":-0.017103595776479873,"99":-0.009856710250232313,"100":-0.04620037672588965,"101":0.00645984441740338,"102":0.0008454333181484502,"103":-0.03965580781934974,"104":0.008392360624191797,"105":0.01005700102207016,"106":-0.0029048520376728742,"107":0.04794583456997042,"108":-0.07194204723254219,"109":0.011804267256621752,"110":0.05924345104940935,"111":0.005848292518791573,"112":0.010140408228998617,"113":-0.0047872491343226055,"114":-0.015056557835903135,"115":0.03772493214834011,"116":0.015616919387965014,"117":-0.03296946222267361,"118":-0.0010562514767617737,"119":0.020848715435219316,"120":-0.0008648079690948277,"121":-0.004661126264944093,"122":0.007063855350429801,"123":-0.054476306560707934,"124":0.057477541173436696,"125":0.031459351067719916,"126":0.017234490449277915,"127":0.009050829361001348,"128":0.0167991257996364,"129":0.07795368722771452,"130":0.001015961289492965,"131":0.010798771945939797,"132":-0.044433368040357114,"133":0.007327283408765141,"134":0.003073598689252893,"135":0.003223456201810564,"136":-0.021806042831439477,"137":-0.018133752489365332,"138":-0.02360422674602218,"139":0.03827150476830012,"140":-0.0320296375307456,"141":0.005214418525474434,"142":0.025495497411278184,"143":-0.07760399778479088,"144":0.039288794793868306,"145":0.018818088801006157,"146":0.04086511339640088,"147":0.0070978494279156845,"148":0.027914302037709494,"149":0.07289685017487715,"150":0.011275879887341878,"151":-0.013473337115870943,"152":-0.00036730121786021137,"153":0.028662878858745383,"154":-0.007019650276829634,"155":0.023571659235665184,"156":0.029506537572636993,"157":-0.03346281845335614,"158":0.004279530650218431,"159":0.014492037267298034,"160":-0.006750474244442386,"161":-0.006065354421171112,"162":-0.06494790148450892,"163":-0.026401508139001308,"164":0.04837692554844355,"165":-0.013458910802697593,"166":0.01697685969527109,"167":-0.010757288137732836,"168":0.04476549371321149,"169":-0.03193010026119815,"170":0.03399272898704094,"171":-0.013920443943630838,"172":0.005812051335128291,"173":0.030758385811028813,"174":-0.061668743044198296,"175":-0.015073639241890821,"176":0.014857135389686835,"177":0.017296297046602193,"178":0.02067275591599261,"179":-0.02607505698978102,"180":0.01121685448001901,"181":-0.02378716035370754,"182":0.03680803839342586,"183":0.006733830275811024,"184":0.030775397843092238,"185":-0.049347684626316585,"186":-0.037505931709644134,"187":0.001468700211207104,"188":-0.0014122084865923127,"189":-0.044156793706380426,"190":0.046265146059884195,"191":0.0016388228791186191,"192":-0.003479437784828185,"193":0.01075486260178135,"194":0.03391631245297343,"195":0.0037303029130242283,"196":0.017856576753863446,"197":-0.04688096391612965,"198":-0.032883888961181454,"199":-0.023791492622351137,"200":0.016567132646616425,"201":-0.0005292236487636101,"202":0.003399000286427797,"203":-0.009082519069377317,"204":0.029227085704799313,"205":-0.003901511178694651,"206":0.017458199238921064,"207":0.03154051309619899,"208":-0.0011927275891463174,"209":-0.042049189428827544,"210":-0.012898176427486264,"211":0.052763731102161614,"212":0.0021462685680930776,"213":-0.01663989860281876,"214":0.04022170247774839,"215":-0.023557256144395484,"216":-0.039498206340466316,"217":-0.0022362999979474237,"218":-0.017427654542000254,"219":-0.037779943545966164,"220":-0.0026397680798500313,"221":0.013926749498269152,"222":0.004747285837668038,"223":0.05642574970711054,"224":-0.028792452471843547,"225":-0.05023746856630254,"226":0.0016521225824897613,"227":0.01398517293648383,"228":-0.012374258519708203,"229":0.020120567258450017,"230":-0.009530412871699203,"231":-0.054095368366712006,"232":-0.0030900445833197056,"233":-0.039730655498313325,"234":-0.018216434893359952,"235":-0.030785618333132047,"236":-0.0005492856942929224,"237":-0.05910499847018125,"238":0.014425140088199753,"239":0.009040586888957253,"240":-0.03397549161314415,"241":-0.04877672909948546,"242":0.02212057049937974,"243":0.026103356564740415,"244":0.021444539876010298,"245":0.016625433567534584,"246":-0.029310282839181613,"247":0.020861547540995402,"248":-0.03175942530194519,"249":-0.00665844764594963,"250":-0.05059423855524456,"251":-0.04767222102128854,"252":-0.023833464491837136,"253":0.017648900480396343,"254":-0.06481822322919033,"255":0.019426847464044092,"256":0.0017101439785001575,"257":-0.016289502454758496,"258":0.05298854435861348,"259":-0.01280102365115895,"260":0.0059224445148329885,"261":0.01279523145365172,"262":0.03490895508842852,"263":0.018738371880616486,"264":0.002394456343551205,"265":0.02332464943613033,"266":0.024603997576488075,"267":0.02656712666557632,"268":-0.03240191319209485,"269":0.05108708911876671,"270":0.033631110630822095,"271":0.010413889849125458,"272":-0.04570719807589439,"273":0.045895393075299114,"274":0.04066114850987243,"275":-0.018992679737455984,"276":-0.01951104662640503,"277":-0.037905079177193234,"278":0.0022685218302700228,"279":0.002291468198927373,"280":0.025307712779435623,"281":0.01001256569229695,"282":0.07522403249801542,"283":0.00659822782052424,"284":-0.0007705227057599713,"285":-0.003496014285182622,"286":0.023454280930394065,"287":-0.0424298436990007,"288":0.030659106237774455,"289":0.021681292088885976,"290":0.09160025349897476,"291":-0.03319015569580369,"292":-0.03844617435078907,"293":-0.01882608903728856,"294":-0.027207001674731945,"295":-0.02281906684948086,"296":-0.021844178712246472,"297":0.0000333112049044758,"298":0.027559345864101057,"299":-0.03720418336415993,"300":-0.08263062200264713,"301":0.002395435110307699,"302":-0.011794752171605,"303":-0.029927006205090916,"304":-0.05173263898616887,"305":-0.01303463888469652,"306":-0.003922570039492666,"307":-0.051108859850649765,"308":0.01919372907268255,"309":-0.01268256656904779,"310":0.02588124457787949,"311":0.03971355675244305,"312":-0.009232655096324177,"313":0.01484447632135003,"314":0.0032026225951180855,"315":0.0018703922539127715,"316":0.00523502666941778,"317":0.039770516093825786,"318":-0.06375417101445534,"319":0.04295663620348977,"320":0.09226141970406748,"321":-0.019387278963500943,"322":-0.013902473892797286,"323":0.051461631422075396,"324":-0.08673744985451493,"325":0.040180097276653504,"326":-0.04391629638285101,"327":-0.013034878585003197,"328":-0.01631227911173292,"329":0.04027719286764153,"330":0.019528736236375497,"331":0.007280023699386351,"332":0.020222985940667165,"333":-0.02219721144697279,"334":-0.04338859128994175,"335":-0.01611281023119123,"336":-0.007748106300844844,"337":-0.028621399757192304,"338":0.002047353784457598,"339":-0.003680318583437647,"340":-0.038591409026168914,"341":0.019033533945765818,"342":-0.0068545101867238355,"343":-0.0446517919431288,"344":0.026573194137839786,"345":-0.049346049677750595,"346":-0.04188359302169114,"347":0.03389342173496078,"348":0.018255186617739495,"349":0.008739921537729352,"350":0.020784466181270132,"351":0.06215646898056016,"352":0.0030425433621349847,"353":0.0052916376384333835,"354":0.07279630103785743,"355":0.0357384330682415,"356":-0.036039308326564524,"357":0.036496117595063944,"358":0.012953501321653385,"359":0.0552170059935573,"360":0.014919455388500443,"361":-0.05158979714086639,"362":-0.0029654885821524405,"363":0.015036004655044344,"364":0.015010515260647663,"365":-0.08859633818331089,"366":0.019193479630004288,"367":0.010384729071995757,"368":0.010318533448948746,"369":0.02112294015820801,"370":0.054958936050379166,"371":-0.05098515226971631,"372":-0.007539970527707705,"373":0.009447213811365148,"374":-0.018531945343856417,"375":0.036976614217168524,"376":-0.012775105767747525,"377":0.007583638249590701,"378":0.013271327712624478,"379":0.006526646013555578,"380":0.006009999579347574,"381":0.06641776935989671,"382":0.03168524076019711,"383":0.0054458083619343045,"384":-0.03876626774188146,"385":0.049795829336903775,"386":0.03922854401283205,"387":0.0015989733651675124,"388":-0.018749016915210297,"389":-0.0005748782413518263,"390":0.015449317330693001,"391":-0.00560766723536752,"392":-0.020997931111401108,"393":-0.001747968117439131,"394":0.012096881505027515,"395":-0.008102192888176627,"396":0.01733583081728346,"397":-0.02069074055683005,"398":0.006206110696296065,"399":0.0021875053925899533,"400":0.017927605631554964,"401":-0.006925159901287645,"402":0.009993426941524169,"403":0.024274067938873045,"404":0.029448995050878474,"405":0.06892809422236805,"406":-0.016980987683170964,"407":-0.014690503119377635,"408":0.05160847728013501,"409":-0.012956448870824791,"410":-0.042315315264487195,"411":0.010401064598221632,"412":-0.02138368671106372,"413":-0.021028808578030186,"414":0.014758182596786911,"415":0.018487070768772953,"416":-0.012699787810989505,"417":0.02349985519229755,"418":0.022580760397262888,"419":-0.020249713553756658,"420":-0.02147164046321267,"421":-0.015545882273303707,"422":-0.029741938381905118,"423":0.013012349857531073,"424":-0.0039926262716565965,"425":0.06212958419056855,"426":-0.00163929749018087,"427":0.02757749014641016,"428":0.004278265790187561,"429":0.04182196076130079,"430":-0.041227305573778086,"431":0.05552810176172921,"432":0.03106543569713911,"433":0.022884925023634005,"434":-0.09115940849227454,"435":0.030488956306192767,"436":0.03474138117467069,"437":0.044750481610773316,"438":-0.02145291649230102,"439":0.030958281332837005,"440":-0.07954860254740213,"441":-0.051096409996724754,"442":-0.013072576048181328,"443":0.014867969243017509,"444":-0.020956631018343854,"445":-0.0016508784411508374,"446":-0.0026132758941944246,"447":-0.02388758042847735,"448":0.00027266349339720013,"449":-0.02091018689758537,"450":0.019052890047091504,"451":-0.010545843592427597,"452":-0.016150154742374707,"453":0.005215502484945204,"454":0.052153952222985446,"455":-0.0014857871834121762,"456":0.05380655355596452,"457":-0.0655898138793723,"458":-0.005072858926724944,"459":0.046455810192069937,"460":-0.009046924929476178,"461":0.011152917633436692,"462":-0.03259353769658967,"463":0.0012328225336523438,"464":0.005125747268742809,"465":-0.055151319665318374,"466":0.0075143822185496645,"467":0.0043415218052183175,"468":-0.06282595871237642,"469":-0.008002550592262087,"470":-0.030671846101899884,"471":-0.00376130381652389,"472":0.03161875879873622,"473":0.05594827838249753,"474":-0.015071102610134595,"475":0.0072046434194151234,"476":-0.033488063451414266,"477":0.028422149599740147,"478":-0.025830809592118788,"479":-0.00860014803146885,"480":-0.028624928068010796,"481":0.021593127984773922,"482":0.021770299315515686,"483":0.023331629361539787,"484":-0.003996942165380833,"485":-0.03911224281843927,"486":-0.019977334419183916,"487":-0.024329258209545266,"488":-0.00953777732622866,"489":0.010844154220445728,"490":0.004712194527875337,"491":0.04712492186014248,"492":-0.06041752502971997,"493":-0.0037275689771789607,"494":-0.018867559936776492,"495":-0.0636830787702193,"496":0.02268660945430387,"497":-0.04258468217031035,"498":0.05097033631438111,"499":-0.013246626639690024,"500":-0.02042249669944319,"501":0.049906011226024664,"502":0.015296219784542353,"503":-0.07382545615509634,"504":0.010020994936233128,"505":-0.003179890837526986,"506":0.01586399917882079,"507":-0.06342686063227258,"508":-0.00030364909405956316,"509":0.043245491227373756,"510":0.028003769341814973,"511":0.025848586910333246,"512":0.021936051076733618,"513":0.01785749190797842,"514":-0.03085909069084674,"515":0.06297487680788744,"516":-0.010064760973670839,"517":0.04999366214455537,"518":0.034584318645552344,"519":0.03155656218522968,"520":0.006975608782411879,"521":0.014027404075645084,"522":0.025857998295839794,"523":0.01063085436716584,"524":-0.023883295179392753,"525":0.06044227051678466,"526":0.028865243617334398,"527":-0.021684091608075107,"528":0.02057399635284629,"529":0.045922351435155995,"530":0.0013593978248316603,"531":-0.02331502160705177,"532":-0.060552867247485,"533":-0.029448038990607474,"534":-0.04579545739550379,"535":0.01948311984530022,"536":0.01754751375305112,"537":0.05061921467452394,"538":-0.06322647195643408,"539":0.016451410350544933,"540":-0.0002512962677700779,"541":-0.028440283726613152,"542":0.006790294455295751,"543":0.019839110258243583,"544":-0.016753091749387165,"545":-0.004954208292019648,"546":-0.05839213324071496,"547":0.031236582921316616,"548":0.01700174982997518,"549":-0.03818246019689531,"550":-0.0011139788509083438,"551":0.02201579312052784,"552":-0.004252897094482606,"553":-0.028769332391447487,"554":-0.03701969775225068,"555":-0.01370909930844421,"556":0.005755822758905498,"557":-0.004322263259475531,"558":0.010605119387347855,"559":0.0031288988116346334,"560":-0.014789540397738834,"561":-0.04447748371014333,"562":0.020134490554713787,"563":-0.023616508546579564,"564":0.03697679754416496,"565":0.020839411915943587,"566":0.015722299215128174,"567":-0.025855444023334274,"568":0.02341255745610082,"569":-0.01232194526094701,"570":-0.03703652131923172,"571":0.010173868384177007,"572":0.025127895620647694,"573":-0.04289425391755193,"574":-0.0006869285699935416,"575":0.050674572059388995,"576":-0.023638218234737083,"577":-0.02038792345043343,"578":-0.0045833375459329055,"579":0.04139195091230086,"580":-0.009070846680745433,"581":0.022226427374406353,"582":-0.02778930839165721,"583":-0.09428711194898431,"584":-0.0037256569816835417,"585":-0.06423342791725706,"586":0.015586878862071538,"587":-0.02884281455914973,"588":0.04533513550908592,"589":0.019913497938618827,"590":0.025425774467675563,"591":-0.005216040507401408,"592":-0.019503855792846036,"593":0.032251873763919435,"594":-0.012321986736842736,"595":-0.013130929231255339,"596":0.006674071343506313,"597":0.005156528556589149,"598":0.01801277629203709,"599":-0.027774543826869686,"600":-0.03864752664074667,"601":-0.0001962192934480991,"602":0.018196404623881713,"603":0.04236054904824343,"604":0.01524522089985228,"605":-0.022845044030909447,"606":0.025159677343662333,"607":0.024249166887254182,"608":-0.00998031242365653,"609":-0.013505839908506624,"610":-0.002140541904267286,"611":-0.002239177150636207,"612":-0.053852376811858456,"613":0.00907325357515547,"614":-0.0608705538764817,"615":0.008390237278277098,"616":0.037985235954475,"617":-0.04421776460337572,"618":0.024048312087860492,"619":-0.019178193338442062,"620":-0.019564559309772803,"621":-0.0002545659055418643,"622":0.0065591891359212725,"623":0.04967269509086864,"624":0.01766779415528813,"625":0.016701859040000586,"626":-0.060114307227801415,"627":-0.01609993629066735,"628":-0.005418839467013138,"629":-0.00427518176694402,"630":0.02763005125636472,"631":0.023141297114634987,"632":0.02981498977882364,"633":0.04033197060927091,"634":0.0045444230434790785,"635":-0.028549560732599902,"636":0.05585304551705519,"637":-0.07395774883305249,"638":0.001473449755257253,"639":0.017567018761044953,"640":-0.01067648389805036,"641":0.0038761339401799993,